tree
version=v2
num_class=1
num_tree_per_iteration=1
label_index=0
max_feature_idx=1638
objective=binary sigmoid:1
feature_names=Column_0 Column_1 Column_2 Column_3 Column_4 Column_5 Column_6 Column_7 Column_8 Column_9 Column_10 Column_11 Column_12 Column_13 Column_14 Column_15 Column_16 Column_17 Column_18 Column_19 Column_20 Column_21 Column_22 Column_23 Column_24 Column_25 Column_26 Column_27 Column_28 Column_29 Column_30 Column_31 Column_32 Column_33 Column_34 Column_35 Column_36 Column_37 Column_38 Column_39 Column_40 Column_41 Column_42 Column_43 Column_44 Column_45 Column_46 Column_47 Column_48 Column_49 Column_50 Column_51 Column_52 Column_53 Column_54 Column_55 Column_56 Column_57 Column_58 Column_59 Column_60 Column_61 Column_62 Column_63 Column_64 Column_65 Column_66 Column_67 Column_68 Column_69 Column_70 Column_71 Column_72 Column_73 Column_74 Column_75 Column_76 Column_77 Column_78 Column_79 Column_80 Column_81 Column_82 Column_83 Column_84 Column_85 Column_86 Column_87 Column_88 Column_89 Column_90 Column_91 Column_92 Column_93 Column_94 Column_95 Column_96 Column_97 Column_98 Column_99 Column_100 Column_101 Column_102 Column_103 Column_104 Column_105 Column_106 Column_107 Column_108 Column_109 Column_110 Column_111 Column_112 Column_113 Column_114 Column_115 Column_116 Column_117 Column_118 Column_119 Column_120 Column_121 Column_122 Column_123 Column_124 Column_125 Column_126 Column_127 Column_128 Column_129 Column_130 Column_131 Column_132 Column_133 Column_134 Column_135 Column_136 Column_137 Column_138 Column_139 Column_140 Column_141 Column_142 Column_143 Column_144 Column_145 Column_146 Column_147 Column_148 Column_149 Column_150 Column_151 Column_152 Column_153 Column_154 Column_155 Column_156 Column_157 Column_158 Column_159 Column_160 Column_161 Column_162 Column_163 Column_164 Column_165 Column_166 Column_167 Column_168 Column_169 Column_170 Column_171 Column_172 Column_173 Column_174 Column_175 Column_176 Column_177 Column_178 Column_179 Column_180 Column_181 Column_182 Column_183 Column_184 Column_185 Column_186 Column_187 Column_188 Column_189 Column_190 Column_191 Column_192 Column_193 Column_194 Column_195 Column_196 Column_197 Column_198 Column_199 Column_200 Column_201 Column_202 Column_203 Column_204 Column_205 Column_206 Column_207 Column_208 Column_209 Column_210 Column_211 Column_212 Column_213 Column_214 Column_215 Column_216 Column_217 Column_218 Column_219 Column_220 Column_221 Column_222 Column_223 Column_224 Column_225 Column_226 Column_227 Column_228 Column_229 Column_230 Column_231 Column_232 Column_233 Column_234 Column_235 Column_236 Column_237 Column_238 Column_239 Column_240 Column_241 Column_242 Column_243 Column_244 Column_245 Column_246 Column_247 Column_248 Column_249 Column_250 Column_251 Column_252 Column_253 Column_254 Column_255 Column_256 Column_257 Column_258 Column_259 Column_260 Column_261 Column_262 Column_263 Column_264 Column_265 Column_266 Column_267 Column_268 Column_269 Column_270 Column_271 Column_272 Column_273 Column_274 Column_275 Column_276 Column_277 Column_278 Column_279 Column_280 Column_281 Column_282 Column_283 Column_284 Column_285 Column_286 Column_287 Column_288 Column_289 Column_290 Column_291 Column_292 Column_293 Column_294 Column_295 Column_296 Column_297 Column_298 Column_299 Column_300 Column_301 Column_302 Column_303 Column_304 Column_305 Column_306 Column_307 Column_308 Column_309 Column_310 Column_311 Column_312 Column_313 Column_314 Column_315 Column_316 Column_317 Column_318 Column_319 Column_320 Column_321 Column_322 Column_323 Column_324 Column_325 Column_326 Column_327 Column_328 Column_329 Column_330 Column_331 Column_332 Column_333 Column_334 Column_335 Column_336 Column_337 Column_338 Column_339 Column_340 Column_341 Column_342 Column_343 Column_344 Column_345 Column_346 Column_347 Column_348 Column_349 Column_350 Column_351 Column_352 Column_353 Column_354 Column_355 Column_356 Column_357 Column_358 Column_359 Column_360 Column_361 Column_362 Column_363 Column_364 Column_365 Column_366 Column_367 Column_368 Column_369 Column_370 Column_371 Column_372 Column_373 Column_374 Column_375 Column_376 Column_377 Column_378 Column_379 Column_380 Column_381 Column_382 Column_383 Column_384 Column_385 Column_386 Column_387 Column_388 Column_389 Column_390 Column_391 Column_392 Column_393 Column_394 Column_395 Column_396 Column_397 Column_398 Column_399 Column_400 Column_401 Column_402 Column_403 Column_404 Column_405 Column_406 Column_407 Column_408 Column_409 Column_410 Column_411 Column_412 Column_413 Column_414 Column_415 Column_416 Column_417 Column_418 Column_419 Column_420 Column_421 Column_422 Column_423 Column_424 Column_425 Column_426 Column_427 Column_428 Column_429 Column_430 Column_431 Column_432 Column_433 Column_434 Column_435 Column_436 Column_437 Column_438 Column_439 Column_440 Column_441 Column_442 Column_443 Column_444 Column_445 Column_446 Column_447 Column_448 Column_449 Column_450 Column_451 Column_452 Column_453 Column_454 Column_455 Column_456 Column_457 Column_458 Column_459 Column_460 Column_461 Column_462 Column_463 Column_464 Column_465 Column_466 Column_467 Column_468 Column_469 Column_470 Column_471 Column_472 Column_473 Column_474 Column_475 Column_476 Column_477 Column_478 Column_479 Column_480 Column_481 Column_482 Column_483 Column_484 Column_485 Column_486 Column_487 Column_488 Column_489 Column_490 Column_491 Column_492 Column_493 Column_494 Column_495 Column_496 Column_497 Column_498 Column_499 Column_500 Column_501 Column_502 Column_503 Column_504 Column_505 Column_506 Column_507 Column_508 Column_509 Column_510 Column_511 Column_512 Column_513 Column_514 Column_515 Column_516 Column_517 Column_518 Column_519 Column_520 Column_521 Column_522 Column_523 Column_524 Column_525 Column_526 Column_527 Column_528 Column_529 Column_530 Column_531 Column_532 Column_533 Column_534 Column_535 Column_536 Column_537 Column_538 Column_539 Column_540 Column_541 Column_542 Column_543 Column_544 Column_545 Column_546 Column_547 Column_548 Column_549 Column_550 Column_551 Column_552 Column_553 Column_554 Column_555 Column_556 Column_557 Column_558 Column_559 Column_560 Column_561 Column_562 Column_563 Column_564 Column_565 Column_566 Column_567 Column_568 Column_569 Column_570 Column_571 Column_572 Column_573 Column_574 Column_575 Column_576 Column_577 Column_578 Column_579 Column_580 Column_581 Column_582 Column_583 Column_584 Column_585 Column_586 Column_587 Column_588 Column_589 Column_590 Column_591 Column_592 Column_593 Column_594 Column_595 Column_596 Column_597 Column_598 Column_599 Column_600 Column_601 Column_602 Column_603 Column_604 Column_605 Column_606 Column_607 Column_608 Column_609 Column_610 Column_611 Column_612 Column_613 Column_614 Column_615 Column_616 Column_617 Column_618 Column_619 Column_620 Column_621 Column_622 Column_623 Column_624 Column_625 Column_626 Column_627 Column_628 Column_629 Column_630 Column_631 Column_632 Column_633 Column_634 Column_635 Column_636 Column_637 Column_638 Column_639 Column_640 Column_641 Column_642 Column_643 Column_644 Column_645 Column_646 Column_647 Column_648 Column_649 Column_650 Column_651 Column_652 Column_653 Column_654 Column_655 Column_656 Column_657 Column_658 Column_659 Column_660 Column_661 Column_662 Column_663 Column_664 Column_665 Column_666 Column_667 Column_668 Column_669 Column_670 Column_671 Column_672 Column_673 Column_674 Column_675 Column_676 Column_677 Column_678 Column_679 Column_680 Column_681 Column_682 Column_683 Column_684 Column_685 Column_686 Column_687 Column_688 Column_689 Column_690 Column_691 Column_692 Column_693 Column_694 Column_695 Column_696 Column_697 Column_698 Column_699 Column_700 Column_701 Column_702 Column_703 Column_704 Column_705 Column_706 Column_707 Column_708 Column_709 Column_710 Column_711 Column_712 Column_713 Column_714 Column_715 Column_716 Column_717 Column_718 Column_719 Column_720 Column_721 Column_722 Column_723 Column_724 Column_725 Column_726 Column_727 Column_728 Column_729 Column_730 Column_731 Column_732 Column_733 Column_734 Column_735 Column_736 Column_737 Column_738 Column_739 Column_740 Column_741 Column_742 Column_743 Column_744 Column_745 Column_746 Column_747 Column_748 Column_749 Column_750 Column_751 Column_752 Column_753 Column_754 Column_755 Column_756 Column_757 Column_758 Column_759 Column_760 Column_761 Column_762 Column_763 Column_764 Column_765 Column_766 Column_767 Column_768 Column_769 Column_770 Column_771 Column_772 Column_773 Column_774 Column_775 Column_776 Column_777 Column_778 Column_779 Column_780 Column_781 Column_782 Column_783 Column_784 Column_785 Column_786 Column_787 Column_788 Column_789 Column_790 Column_791 Column_792 Column_793 Column_794 Column_795 Column_796 Column_797 Column_798 Column_799 Column_800 Column_801 Column_802 Column_803 Column_804 Column_805 Column_806 Column_807 Column_808 Column_809 Column_810 Column_811 Column_812 Column_813 Column_814 Column_815 Column_816 Column_817 Column_818 Column_819 Column_820 Column_821 Column_822 Column_823 Column_824 Column_825 Column_826 Column_827 Column_828 Column_829 Column_830 Column_831 Column_832 Column_833 Column_834 Column_835 Column_836 Column_837 Column_838 Column_839 Column_840 Column_841 Column_842 Column_843 Column_844 Column_845 Column_846 Column_847 Column_848 Column_849 Column_850 Column_851 Column_852 Column_853 Column_854 Column_855 Column_856 Column_857 Column_858 Column_859 Column_860 Column_861 Column_862 Column_863 Column_864 Column_865 Column_866 Column_867 Column_868 Column_869 Column_870 Column_871 Column_872 Column_873 Column_874 Column_875 Column_876 Column_877 Column_878 Column_879 Column_880 Column_881 Column_882 Column_883 Column_884 Column_885 Column_886 Column_887 Column_888 Column_889 Column_890 Column_891 Column_892 Column_893 Column_894 Column_895 Column_896 Column_897 Column_898 Column_899 Column_900 Column_901 Column_902 Column_903 Column_904 Column_905 Column_906 Column_907 Column_908 Column_909 Column_910 Column_911 Column_912 Column_913 Column_914 Column_915 Column_916 Column_917 Column_918 Column_919 Column_920 Column_921 Column_922 Column_923 Column_924 Column_925 Column_926 Column_927 Column_928 Column_929 Column_930 Column_931 Column_932 Column_933 Column_934 Column_935 Column_936 Column_937 Column_938 Column_939 Column_940 Column_941 Column_942 Column_943 Column_944 Column_945 Column_946 Column_947 Column_948 Column_949 Column_950 Column_951 Column_952 Column_953 Column_954 Column_955 Column_956 Column_957 Column_958 Column_959 Column_960 Column_961 Column_962 Column_963 Column_964 Column_965 Column_966 Column_967 Column_968 Column_969 Column_970 Column_971 Column_972 Column_973 Column_974 Column_975 Column_976 Column_977 Column_978 Column_979 Column_980 Column_981 Column_982 Column_983 Column_984 Column_985 Column_986 Column_987 Column_988 Column_989 Column_990 Column_991 Column_992 Column_993 Column_994 Column_995 Column_996 Column_997 Column_998 Column_999 Column_1000 Column_1001 Column_1002 Column_1003 Column_1004 Column_1005 Column_1006 Column_1007 Column_1008 Column_1009 Column_1010 Column_1011 Column_1012 Column_1013 Column_1014 Column_1015 Column_1016 Column_1017 Column_1018 Column_1019 Column_1020 Column_1021 Column_1022 Column_1023 Column_1024 Column_1025 Column_1026 Column_1027 Column_1028 Column_1029 Column_1030 Column_1031 Column_1032 Column_1033 Column_1034 Column_1035 Column_1036 Column_1037 Column_1038 Column_1039 Column_1040 Column_1041 Column_1042 Column_1043 Column_1044 Column_1045 Column_1046 Column_1047 Column_1048 Column_1049 Column_1050 Column_1051 Column_1052 Column_1053 Column_1054 Column_1055 Column_1056 Column_1057 Column_1058 Column_1059 Column_1060 Column_1061 Column_1062 Column_1063 Column_1064 Column_1065 Column_1066 Column_1067 Column_1068 Column_1069 Column_1070 Column_1071 Column_1072 Column_1073 Column_1074 Column_1075 Column_1076 Column_1077 Column_1078 Column_1079 Column_1080 Column_1081 Column_1082 Column_1083 Column_1084 Column_1085 Column_1086 Column_1087 Column_1088 Column_1089 Column_1090 Column_1091 Column_1092 Column_1093 Column_1094 Column_1095 Column_1096 Column_1097 Column_1098 Column_1099 Column_1100 Column_1101 Column_1102 Column_1103 Column_1104 Column_1105 Column_1106 Column_1107 Column_1108 Column_1109 Column_1110 Column_1111 Column_1112 Column_1113 Column_1114 Column_1115 Column_1116 Column_1117 Column_1118 Column_1119 Column_1120 Column_1121 Column_1122 Column_1123 Column_1124 Column_1125 Column_1126 Column_1127 Column_1128 Column_1129 Column_1130 Column_1131 Column_1132 Column_1133 Column_1134 Column_1135 Column_1136 Column_1137 Column_1138 Column_1139 Column_1140 Column_1141 Column_1142 Column_1143 Column_1144 Column_1145 Column_1146 Column_1147 Column_1148 Column_1149 Column_1150 Column_1151 Column_1152 Column_1153 Column_1154 Column_1155 Column_1156 Column_1157 Column_1158 Column_1159 Column_1160 Column_1161 Column_1162 Column_1163 Column_1164 Column_1165 Column_1166 Column_1167 Column_1168 Column_1169 Column_1170 Column_1171 Column_1172 Column_1173 Column_1174 Column_1175 Column_1176 Column_1177 Column_1178 Column_1179 Column_1180 Column_1181 Column_1182 Column_1183 Column_1184 Column_1185 Column_1186 Column_1187 Column_1188 Column_1189 Column_1190 Column_1191 Column_1192 Column_1193 Column_1194 Column_1195 Column_1196 Column_1197 Column_1198 Column_1199 Column_1200 Column_1201 Column_1202 Column_1203 Column_1204 Column_1205 Column_1206 Column_1207 Column_1208 Column_1209 Column_1210 Column_1211 Column_1212 Column_1213 Column_1214 Column_1215 Column_1216 Column_1217 Column_1218 Column_1219 Column_1220 Column_1221 Column_1222 Column_1223 Column_1224 Column_1225 Column_1226 Column_1227 Column_1228 Column_1229 Column_1230 Column_1231 Column_1232 Column_1233 Column_1234 Column_1235 Column_1236 Column_1237 Column_1238 Column_1239 Column_1240 Column_1241 Column_1242 Column_1243 Column_1244 Column_1245 Column_1246 Column_1247 Column_1248 Column_1249 Column_1250 Column_1251 Column_1252 Column_1253 Column_1254 Column_1255 Column_1256 Column_1257 Column_1258 Column_1259 Column_1260 Column_1261 Column_1262 Column_1263 Column_1264 Column_1265 Column_1266 Column_1267 Column_1268 Column_1269 Column_1270 Column_1271 Column_1272 Column_1273 Column_1274 Column_1275 Column_1276 Column_1277 Column_1278 Column_1279 Column_1280 Column_1281 Column_1282 Column_1283 Column_1284 Column_1285 Column_1286 Column_1287 Column_1288 Column_1289 Column_1290 Column_1291 Column_1292 Column_1293 Column_1294 Column_1295 Column_1296 Column_1297 Column_1298 Column_1299 Column_1300 Column_1301 Column_1302 Column_1303 Column_1304 Column_1305 Column_1306 Column_1307 Column_1308 Column_1309 Column_1310 Column_1311 Column_1312 Column_1313 Column_1314 Column_1315 Column_1316 Column_1317 Column_1318 Column_1319 Column_1320 Column_1321 Column_1322 Column_1323 Column_1324 Column_1325 Column_1326 Column_1327 Column_1328 Column_1329 Column_1330 Column_1331 Column_1332 Column_1333 Column_1334 Column_1335 Column_1336 Column_1337 Column_1338 Column_1339 Column_1340 Column_1341 Column_1342 Column_1343 Column_1344 Column_1345 Column_1346 Column_1347 Column_1348 Column_1349 Column_1350 Column_1351 Column_1352 Column_1353 Column_1354 Column_1355 Column_1356 Column_1357 Column_1358 Column_1359 Column_1360 Column_1361 Column_1362 Column_1363 Column_1364 Column_1365 Column_1366 Column_1367 Column_1368 Column_1369 Column_1370 Column_1371 Column_1372 Column_1373 Column_1374 Column_1375 Column_1376 Column_1377 Column_1378 Column_1379 Column_1380 Column_1381 Column_1382 Column_1383 Column_1384 Column_1385 Column_1386 Column_1387 Column_1388 Column_1389 Column_1390 Column_1391 Column_1392 Column_1393 Column_1394 Column_1395 Column_1396 Column_1397 Column_1398 Column_1399 Column_1400 Column_1401 Column_1402 Column_1403 Column_1404 Column_1405 Column_1406 Column_1407 Column_1408 Column_1409 Column_1410 Column_1411 Column_1412 Column_1413 Column_1414 Column_1415 Column_1416 Column_1417 Column_1418 Column_1419 Column_1420 Column_1421 Column_1422 Column_1423 Column_1424 Column_1425 Column_1426 Column_1427 Column_1428 Column_1429 Column_1430 Column_1431 Column_1432 Column_1433 Column_1434 Column_1435 Column_1436 Column_1437 Column_1438 Column_1439 Column_1440 Column_1441 Column_1442 Column_1443 Column_1444 Column_1445 Column_1446 Column_1447 Column_1448 Column_1449 Column_1450 Column_1451 Column_1452 Column_1453 Column_1454 Column_1455 Column_1456 Column_1457 Column_1458 Column_1459 Column_1460 Column_1461 Column_1462 Column_1463 Column_1464 Column_1465 Column_1466 Column_1467 Column_1468 Column_1469 Column_1470 Column_1471 Column_1472 Column_1473 Column_1474 Column_1475 Column_1476 Column_1477 Column_1478 Column_1479 Column_1480 Column_1481 Column_1482 Column_1483 Column_1484 Column_1485 Column_1486 Column_1487 Column_1488 Column_1489 Column_1490 Column_1491 Column_1492 Column_1493 Column_1494 Column_1495 Column_1496 Column_1497 Column_1498 Column_1499 Column_1500 Column_1501 Column_1502 Column_1503 Column_1504 Column_1505 Column_1506 Column_1507 Column_1508 Column_1509 Column_1510 Column_1511 Column_1512 Column_1513 Column_1514 Column_1515 Column_1516 Column_1517 Column_1518 Column_1519 Column_1520 Column_1521 Column_1522 Column_1523 Column_1524 Column_1525 Column_1526 Column_1527 Column_1528 Column_1529 Column_1530 Column_1531 Column_1532 Column_1533 Column_1534 Column_1535 Column_1536 Column_1537 Column_1538 Column_1539 Column_1540 Column_1541 Column_1542 Column_1543 Column_1544 Column_1545 Column_1546 Column_1547 Column_1548 Column_1549 Column_1550 Column_1551 Column_1552 Column_1553 Column_1554 Column_1555 Column_1556 Column_1557 Column_1558 Column_1559 Column_1560 Column_1561 Column_1562 Column_1563 Column_1564 Column_1565 Column_1566 Column_1567 Column_1568 Column_1569 Column_1570 Column_1571 Column_1572 Column_1573 Column_1574 Column_1575 Column_1576 Column_1577 Column_1578 Column_1579 Column_1580 Column_1581 Column_1582 Column_1583 Column_1584 Column_1585 Column_1586 Column_1587 Column_1588 Column_1589 Column_1590 Column_1591 Column_1592 Column_1593 Column_1594 Column_1595 Column_1596 Column_1597 Column_1598 Column_1599 Column_1600 Column_1601 Column_1602 Column_1603 Column_1604 Column_1605 Column_1606 Column_1607 Column_1608 Column_1609 Column_1610 Column_1611 Column_1612 Column_1613 Column_1614 Column_1615 Column_1616 Column_1617 Column_1618 Column_1619 Column_1620 Column_1621 Column_1622 Column_1623 Column_1624 Column_1625 Column_1626 Column_1627 Column_1628 Column_1629 Column_1630 Column_1631 Column_1632 Column_1633 Column_1634 Column_1635 Column_1636 Column_1637 Column_1638
feature_infos=[-15.549560546875:26.299999237060547] [-15.667556762695312:21.899999618530273] [-15.540940284729004:22.848274230957031] [-15.551170349121094:20.599882125854492] [-15.689101219177246:20.718156814575195] [-0.00034364112070761621:0.00082210300024598837] [-0.00038903305539861321:0.00097367202397435904] [-0.00028571012080647051:0.00073534093098714948] [-0.00024054264940787107:0.00087687204359099269] [-0.00028497682069428265:0.00085863110143691301] [0:5680] [0:5860] [0:5639.310546875] [0:5811.72412109375] [0:5833.79296875] [0:5820] [0:5960] [0:5693.79296875] [0:5851.72412109375] [0:5873.79296875] [0:5400] [0:5680] [0:5346.20703125] [0:5574.48291015625] [0:5548.27587890625] [0:5820] [0:5960] [0:5587.58642578125] [0:5783.4482421875] [0:5786.896484375] [0:1] [0:1] [0:1] [0:1] [0:1] [0:1] [0:1] [0:1] [0:0.96551722288131714] [0:0.89655172824859619] [-793.787109375:12.135009765625] [-751.1962890625:12.881546020507812] [-635.4422607421875:11.445354461669922] [-683.33441162109375:12.881539344787598] [-692.16815185546875:11.60552978515625] [-737.8212890625:13.844451904296875] [-684.965087890625:13.685379028320312] [-630.63848876953125:13.844451904296875] [-633.43572998046875:13.685376167297363] [-630.0047607421875:13.68537425994873] [-732.8037109375:9.6484375] [-718.30419921875:8.027801513671875] [-712.34033203125:6.532440185546875] [-586.33892822265625:8.027801513671875] [-575.105712890625:8.027801513671875] [-1060.60107421875:14.564208984375] [-875.15576171875:13.685379028320312] [-812.3583984375:11.949920654296875] [-827.86529541015625:13.685376167297363] [-830.03106689453125:13.685375213623047] [0:1] [0:1] [0:1] [0:1] [0:1] [0:1] [0:1] [0:1] [0:1] [0:1] [0:57.9375] [0:56.75] [0:54.183189392089844] [0:53.241378784179688] [0:53.357143402099609] [248.81011962890625:299.95751953125] [249.0133056640625:300.11474609375] [249.03205871582031:299.87991333007812] [249.54122924804688:300.12554931640625] [249.57215881347656:300.17312622070312] [271.24923706054688:375.62890625] [271.64642333984375:376.234130859375] [271.04656982421875:372.98236083984375] [272.34915161132812:375.57479858398438] [274.72503662109375:375.58770751953125] [0.21259742975234985:37.534294128417969] [0.21204566955566406:39.834987640380859] [0.62191051244735718:31.606094360351562] [0.55344641208648682:32.253208160400391] [0.56958085298538208:32.086956024169922] [0:100] [0:100] [0:100] [0:100] [0:100] [0:6415.13427734375] [0:6389.8505859375] [0:6390.734375] [0:6282.64990234375] [0:6427.34912109375] [15876.43359375:16799.07421875] [15881.82421875:16799.85546875] [15876.5166015625:16799.134765625] [15881.265625:16799.26953125] [15879.5146484375:16799.423828125] [-192.191162109375:241.1959228515625] [-194.00102233886719:231.57069396972656] [-189.77742004394531:241.51675415039062] [-194.1822509765625:231.89768981933594] [-219.99174499511719:236.49888610839844] [14434.88671875:15483.953125] [14437.5625:15481.09375] [14434.4677734375:15483.6572265625] [14437.298828125:15478.96484375] [14432.6328125:15480.7392578125] [13250.2578125:14390.60546875] [13254.4609375:14385.51171875] [13250.427734375:14388.7802734375] [13254.6591796875:14385.73828125] [13248.8408203125:14386.4970703125] [12246.8203125:13428.93359375] [12252.71484375:13424.2265625] [12246.7880859375:13428.1953125] [12252.8662109375:13424.2001953125] [12243.857421875:13424.93359375] [11373.5390625:12563.38671875] [11382.31640625:12557.04296875] [11374.884765625:12562.8759765625] [11382.978515625:12556.9287109375] [11369.7255859375:12557.5283203125] [10602.34375:11775.46484375] [10613.88671875:11773.62890625] [10603.5595703125:11775.4384765625] [10614.7998046875:11773.4599609375] [10599.4921875:11773.755859375] [9905.15234375:11064.62109375] [9917.16796875:11061.26953125] [9906.439453125:11064.486328125] [9918.1474609375:11061.17578125] [9912.3212890625:11061.3359375] [9280.546875:10411.28125] [9291.53125:10401.39453125] [9281.3955078125:10410.6865234375] [9292.166015625:10401.4296875] [9293.7734375:10401.5986328125] [8715.47265625:9802.24609375] [8724.5546875:9792.828125] [8715.787109375:9801.822265625] [8724.5234375:9792.7197265625] [8728.0625:9792.0302734375] [8196.26953125:9231.05078125] [8203.3125:9222.79296875] [8196.28515625:9230.66015625] [8203.287109375:9222.6875] [8206.37890625:9221.7783203125] [7712.3671875:8692.34375] [7719.58203125:8685.9140625] [7712.412109375:8692.119140625] [7719.72998046875:8685.423828125] [7721.74853515625:8684.2421875] [7257.140625:8182.00390625] [7264.66015625:8176.76953125] [7257.12353515625:8181.91064453125] [7264.8203125:8176.607421875] [7268.57421875:8175.18896484375] [6825.5078125:7697.328125] [6831.62109375:7693.671875] [6825.46728515625:7697.2978515625] [6831.86376953125:7693.3701171875] [6835.0205078125:7692.3271484375] [6409.412109375:7243.86865234375] [6412.4990234375:7240.18408203125] [6409.7919921875:7243.62451171875] [6412.8017578125:7240.07666015625] [6410.8173828125:7239.8837890625] [6001.89794921875:6810.87060546875] [6005.16015625:6807.6904296875] [6002.22265625:6810.65283203125] [6005.3408203125:6807.48583984375] [6003.3173828125:6807.146484375] [5612.9140625:6395.6630859375] [5616.3369140625:6392.99609375] [5613.181640625:6395.4814453125] [5616.39306640625:6392.94580078125] [5614.2119140625:6392.80419921875] [5237.76904296875:5996.80029296875] [5241.15185546875:5994.541015625] [5238.07861328125:5996.68017578125] [5241.3046875:5994.47802734375] [5238.84375:5994.5166015625] [4878.36767578125:5612.79345703125] [4881.69140625:5610.705078125] [4878.60009765625:5612.69287109375] [4881.79541015625:5610.6884765625] [4879.0439453125:5610.41552734375] [4531.72021484375:5241.86474609375] [4534.93017578125:5240.603515625] [4532.07568359375:5241.79052734375] [4535.173828125:5240.6630859375] [4532.27197265625:5240.4384765625] [4197.1650390625:4882.94189453125] [4200.228515625:4882.2685546875] [4197.48583984375:4882.9072265625] [4200.48583984375:4882.24658203125] [4197.49169921875:4882.0947265625] [3874.55908203125:4535.24755859375] [3877.483642578125:4535.2138671875] [3874.80859375:4535.14794921875] [3877.880126953125:4535.18359375] [3874.905029296875:4534.88330078125] [3561.262451171875:4198.06884765625] [3564.37158203125:4198.61669921875] [3561.475341796875:4198.00732421875] [3564.867919921875:4198.60595703125] [3561.860107421875:4198.43701171875] [3257.599853515625:3870.59033203125] [3262.275634765625:3871.455810546875] [3257.908447265625:3870.35888671875] [3262.868896484375:3871.364501953125] [3259.809814453125:3871.33544921875] [2963.94775390625:3558.330078125] [2968.689697265625:3555.66650390625] [2964.285400390625:3558.208251953125] [2969.4326171875:3555.458984375] [2966.3408203125:3555.423583984375] [2679.382080078125:3255.13671875] [2684.4560546875:3252.632568359375] [2679.811279296875:3254.728515625] [2685.19873046875:3252.46875] [2681.93408203125:3252.331787109375] [2404.231689453125:2962.014892578125] [2409.111572265625:2959.37841796875] [2404.591064453125:2961.588623046875] [2409.778076171875:2959.3994140625] [2406.258056640625:2959.35205078125] [2136.75146484375:2677.069580078125] [2141.922607421875:2675.209228515625] [2137.441650390625:2676.7509765625] [2142.42041015625:2675.4169921875] [2138.538818359375:2675.033447265625] [1876.5059814453125:2399.9736328125] [1882.758544921875:2398.747802734375] [1877.0213623046875:2399.606689453125] [1883.094970703125:2398.94091796875] [1878.17724609375:2398.4453125] [1624.10595703125:2130.224853515625] [1630.9986572265625:2129.613525390625] [1624.4898681640625:2129.910888671875] [1631.45458984375:2129.811767578125] [1625.0045166015625:2129.260009765625] [1379.535400390625:1867.100830078125] [1386.0162353515625:1866.9013671875] [1379.731201171875:1866.8297119140625] [1386.3892822265625:1867.1434326171875] [1379.621337890625:1866.4365234375] [1142.1746826171875:1610.853515625] [1148.44189453125:1610.1474609375] [1142.1864013671875:1610.607177734375] [1148.612060546875:1610.3851318359375] [1141.720947265625:1609.5230712890625] [910.906982421875:1361.294677734375] [917.2537841796875:1359.1640625] [910.82220458984375:1361.2755126953125] [917.27069091796875:1359.427001953125] [908.34747314453125:1358.4227294921875] [684.84326171875:1127.772705078125] [677.4432373046875:1118.677734375] [684.706787109375:1127.7032470703125] [685.23077392578125:1118.660888671875] [662.25482177734375:1120.5621337890625] [456.09329223632812:899.9324951171875] [438.4149169921875:890.54248046875] [461.57968139648438:899.8277587890625] [446.16876220703125:890.52593994140625] [422.07675170898438:893.1458740234375] [222.44790649414062:677.06158447265625] [205.04258728027344:667.43609619140625] [227.87788391113281:676.97503662109375] [212.7337646484375:667.4735107421875] [187.50765991210938:670.8736572265625] [-6.154449462890625:458.628173828125] [-23.28388786315918:448.760986328125] [-0.85944944620132446:458.57272338867188] [-15.711381912231445:448.84619140625] [-42.291347503662109:453.18792724609375] [30.16497802734375:25000] [30.214950561523438:25000] [30.24560546875:25000] [30.34637451171875:25000] [28.8031005859375:25000] [200.37187194824219:25000] [187.8641357421875:25000] [267.12152099609375:25000] [293.54727172851562:25000] [228.26594543457031:25000] [-5000.0009765625:15740.5] [-5000.0009765625:15769] [-5000.00048828125:15074.068359375] [-5000.00048828125:14928.740234375] [-5000.00048828125:14852.267578125] [21.56390380859375:16096.19921875] [21.544727325439453:16095.7197265625] [29.501476287841797:16089.126953125] [33.166709899902344:16059.5732421875] [22.590011596679688:16075.8662109375] [0:6422.248046875] [0:6393.16357421875] [0:6391.04931640625] [0:6283.5625] [0:6427.09033203125] [-42019:5808.88134765625] [-42019:5781.36328125] [-28578.724609375:5742.26171875] [-28597.275390625:5738.041015625] [-42023:5758.0576171875] [12.400959014892578:6467.40283203125] [12.398681640625:6649.25048828125] [14.116963386535645:6345.25830078125] [14.65185546875:6034.61328125] [14.723880767822266:6394.89697265625] [-74:3768.5] [-74:3768.5] [-2.2962963581085205:3392.146484375] [-2.2962963581085205:3392.146484375] [-3.201923131942749:3411.97412109375] [-400:814.0162353515625] [-360.55130004882812:780.060546875] [-388.96551513671875:771.5999755859375] [-332.82720947265625:732.1295166015625] [-325.41348266601562:732.060546875] [-713.33062744140625:1665.9193115234375] [-675.631103515625:1604.183349609375] [-625.18267822265625:1531.4364013671875] [-625.26055908203125:1423.1717529296875] [-691.18646240234375:1394.5283203125] [0:6745] [0:6651.5] [0:6478.57763671875] [0:6100.396484375] [0:6483.02587890625] [0:100] [0:100] [0:100] [0:100] [0:100] [-15.145795822143555:36.700000762939453] [-15.219880104064941:35.501369476318359] [-14.674395561218262:36.658618927001953] [-14.736288070678711:35.408267974853516] [-14.840274810791016:34.115653991699219] [0:1] [0:1] [0:1] [0:1] [0:1] [0:100] [0:100] [0:100] [0:100] [0:100] [97563.40625:102894.265625] [97419.9296875:102772.8671875] [97611.3984375:102894.6796875] [97480.7578125:102774.3046875] [97259.859375:102848.703125] [0:100.00099945068359] [0:100.00099945068359] [0:100.00098419189453] [0:100.00098419189453] [0:100.00098419189453] [37314.8203125:100137.71875] [37925:100140.546875] [40551.91015625:100137.7421875] [40582.328125:100126.78125] [39459.6328125:100126.78125] [266.78033447265625:328.638671875] [267.09664916992188:329.17919921875] [267.072265625:328.44229125976562] [267.46826171875:328.8646240234375] [268.78237915039062:329.14801025390625] [299.610595703125:445.376708984375] [298.6376953125:444.11572265625] [300.48980712890625:441.60528564453125] [300.5126953125:440.163330078125] [302.130859375:438.78366088867188] [0:0.011500000022351742] [0:0.011099999770522118] [0:0.0083639994263648987] [0:0.0087679997086524963] [0:0.0079192314296960831] [45304.71875:101299.9921875] [45314.46875:101290.078125] [45512.734375:101103.4375] [45990.484375:101053.0390625] [45293.05859375:100778.03125] [63475.9296875:101719.5546875] [63724.51171875:101675.5625] [66462.109375:101723.375] [66503.8125:101606.984375] [66437.0078125:101877.25] [45400:99210.328125] [45405.4453125:98087.625] [45592:97924.8828125] [46069.4453125:97936.2265625] [45344.73828125:98131.3984375] [10000.1298828125:50016.94921875] [9999.9990234375:50038.82421875] [10132.4443359375:49671.796875] [10133.4912109375:49726.453125] [10093.0146484375:49772.4765625] [64167:102663.9375] [64188:102533.890625] [67068.4453125:102575.5078125] [67111.03125:102456.984375] [67039.59375:102737.25] [6697.89892578125:44193.24609375] [6756.39794921875:41894.5625] [7187.556640625:39834.484375] [7145.537109375:40591.11328125] [7142.77734375:42168.96484375] [1.4541418552398682:79.593124389648438] [1.2974915504455566:79.793045043945312] [2.0688595771789551:78.858131408691406] [2.0793726444244385:79.468063354492188] [2.0793728828430176:77.824302673339844] [-10.000000953674316:48.625] [-10.000000953674316:46.8125] [-10.000000953674316:42.952499389648438] [-10.000000953674316:43.279998779296875] [-10.000000953674316:42.991378784179688] [-10.000001907348633:47.0625] [-10.000001907348633:45.875] [-10.000000953674316:42.064998626708984] [-10.000000953674316:42.322498321533203] [-10.000000953674316:42.148708343505859] [-10.000001907348633:43.875] [-10.000001907348633:44] [-10.000000953674316:41.192501068115234] [-10.000000953674316:41.034999847412109] [-10.000000953674316:39.048076629638672] [-994.4007568359375:25000] [-999.2008056640625:25000] [1502.675048828125:25000] [1445.3292236328125:25000] [1435.643310546875:25000] [1:100.24028778076172] [1:100.44445037841797] [1:100.20454406738281] [1:100.21859741210938] [1:100.32081604003906] [0:80.480552673339844] [0:81.026702880859375] [0:73.424530029296875] [0:77.726722717285156] [0:71.298988342285156] [3:100] [3:100] [3:100] [3:100] [2.6428570747375488:100] [3.25:100.48910522460938] [2.75:100.49742126464844] [4.2413792610168457:100.48722839355469] [4.5431032180786133:100.49739837646484] [4.5258622169494629:100.49739837646484] [0:86.571479797363281] [0:88.414970397949219] [0:86.10650634765625] [0:87.175514221191406] [0:87.159255981445312] [0:91.103271484375] [0:90.867134094238281] [0:89.993270874023438] [0:89.530952453613281] [0:90.591773986816406] [1:100.43502807617188] [1:100.47718811035156] [2:100.35056304931641] [1.3448275327682495:100.47719573974609] [2.3166666030883789:100.47721099853516] [0:92.224090576171875] [0:92.212493896484375] [0:91.530570983886719] [0:91.845565795898438] [0:91.789596557617188] [1:100.45426177978516] [1:100.45487976074219] [1.7155172824859619:100.45427703857422] [1.9568965435028076:100.35140991210938] [2.0916666984558105:100.36687469482422] [2:100.48110961914062] [2:100.48324584960938] [2:100.01893615722656] [3.0689654350280762:100.02745056152344] [2.9642856121063232:100] [0:93.810523986816406] [0:94.389259338378906] [0:93.102928161621094] [0:94.048728942871094] [0:94.014244079589844] [0:95.034278869628906] [0:94.919471740722656] [0.034482758492231369:94.485946655273438] [0:93.604637145996094] [0.0625:93.558341979980469] [0:94.895439147949219] [0:95.996238708496094] [0:92.162742614746094] [0:94.176803588867188] [0:94.429420471191406] [0:95.679718017578125] [0:95.633941650390625] [0.24442459642887115:94.050384521484375] [0.31034481525421143:93.858818054199219] [0.3214285671710968:93.093620300292969] [1.8798542022705078:100.49994659423828] [2.4522790908813477:100.49464416503906] [2.6729564666748047:100.47299194335938] [2.9515297412872314:100.49463653564453] [2.7212212085723877:100.46906280517578] [0:95.787025451660156] [0:96.002571105957031] [0.72000002861022949:92.377548217773438] [0.87999999523162842:92.748291015625] [0.53571426868438721:92.861480712890625] [0:95.581748962402344] [0:97.044471740722656] [0.14814814925193787:93.923980712890625] [0:92.137565612792969] [0.037037037312984467:92.493515014648438] [0:98.4259033203125] [0:98.228935241699219] [0:96.565895080566406] [0:96.21197509765625] [0.10000000149011612:93.427215576171875] [0:99.150665283203125] [0:98.586166381835938] [0:98.025642395019531] [0:97.686172485351562] [0:97.245498657226562] [0:100] [0:99.162322998046875] [0:98.599998474121094] [0:98.167343139648438] [0:98.4375] [0:100] [0:99.325393676757812] [0:99.639999389648438] [0:99.034652709960938] [0:98.875] [0:99.578010559082031] [0:99.534896850585938] [0:99.362525939941406] [0:99.418525695800781] [0:99.353866577148438] [0:100] [0:100] [0:99.8648681640625] [0:99.769233703613281] [0:99.714286804199219] [0:100] [0:100] [0:99.800003051757812] [0:99.96551513671875] [0:99.96875] [0:100] [0:100] [0:100] [0:100] [0:100] [0:100] [0:100] [0:100] [0:100] [0:100] [0:100] [0:100] [0:100] [0:100] [0:100] [2.4091501235961914:100.49163818359375] [2.903468132019043:100.49713134765625] [3.1936321258544922:100.467041015625] [3.3049640655517578:100.49709320068359] [3.2446191310882568:100.49710083007812] [0:100] [0:100] [0:100] [0:100] [0:100] [0:100] [0:100] [0.034482758492231369:100] [0.068965516984462738:100] [0:100] [0:100] [0:100] [0:100] [0.10344827920198441:100] [0.13793103396892548:100] [0:100] [0:100] [0.068965516984462738:100] [0.19354838132858276:100] [0:100] [0:100] [0:100] [0.34482759237289429:100] [0.032258063554763794:100] [0:100] [0:100] [0:100] [0.47999998927116394:100] [0.25806450843811035:100] [0.12903225421905518:100] [0:100] [0.13853393495082855:100] [0.52996343374252319:100] [0.31445991992950439:100] [0.21715892851352692:100] [0.17337535321712494:100] [0.13504210114479065:100] [0.44569668173789978:100] [0.35263475775718689:100] [0.25573182106018066:100] [1:100] [0.77218508720397949:100] [1.7939159870147705:100] [1.2351478338241577:100] [1.4864708185195923:100] [2:100] [1:100] [2.4299728870391846:100] [1.1757616996765137:100] [1.214874267578125:100] [2:100] [2:100] [2.4482758045196533:100] [2.7241380214691162:100] [2.6428570747375488:100] [2:100] [2:100] [2.4482758045196533:100] [2.7241380214691162:100] [2.6428570747375488:100] [3:100.49944305419922] [3:100.48722839355469] [3.6810345649719238:100.49944305419922] [3.9741380214691162:100.48722839355469] [3.9107143878936768:100.48723602294922] [2:100] [2:100] [2.3448276519775391:100] [2.5172414779663086:100] [2.3571429252624512:100] [2:100] [2:100] [2.3448276519775391:100] [2.4137930870056152:100] [2.2857143878936768:100] [3:100] [2:100] [2.8965516090393066:100] [2.5172414779663086:100] [2.3448276519775391:100] [3:100] [3:100] [3:100] [3:100] [2.6428570747375488:100] [1:100.24028778076172] [1:100.44445037841797] [1:100.16883087158203] [1:100.21859741210938] [1:100.32081604003906] [0:6.1919999122619629] [0:6.1929998397827148] [0:1.9399312734603882] [0:1.9186896085739136] [0:2.11358642578125] [0.00058905454352498055:0.022716531530022621] [0.0006070226663723588:0.022959936410188675] [0.00060457189101725817:0.022607689723372459] [0.00063667778158560395:0.022926297038793564] [0.00073924940079450607:0.022979764267802238] [4.3414460378699005e-05:0.021191025152802467] [7.6726151746697724e-05:0.020303653553128242] [4.3414456740720198e-05:0.020229017361998558] [7.6726166298612952e-05:0.02013813704252243] [7.8950215538498014e-05:0.020436851307749748] [0:100] [0:100] [0:100] [0:100] [0:100] [193.18603515625:225.21510314941406] [192.34524536132812:225.02008056640625] [193.24102783203125:225.26690673828125] [192.60772705078125:224.9898681640625] [193.48847961425781:224.70552062988281] [265.45159912109375:320.69873046875] [265.59259033203125:320.4954833984375] [265.80966186523438:320.51339721679688] [265.95751953125:320.1981201171875] [267.5498046875:320.3038330078125] [252.02058410644531:308.6572265625] [251.96340942382812:308.01559448242188] [256.1412353515625:307.5877685546875] [256.2392578125:307.07562255859375] [255.349609375:305.77734375] [197.13772583007812:226.59280395507812] [196.19526672363281:226.58380126953125] [197.31271362304688:226.5626220703125] [196.37528991699219:226.56658935546875] [196.69529724121094:226.15641784667969] [198.04672241210938:228.734619140625] [196.9697265625:227.92393493652344] [198.23208618164062:228.68281555175781] [197.14213562011719:227.81568908691406] [197.61705017089844:227.85118103027344] [249.1075439453125:306.192626953125] [249.72718811035156:305.760009765625] [253.77987670898438:304.46566772460938] [254.11077880859375:304.12103271484375] [253.21134948730469:301.71527099609375] [201.03181457519531:233.12557983398438] [200.89698791503906:233.03329467773438] [201.34642028808594:233.03070068359375] [201.04354858398438:232.92117309570312] [201.13865661621094:232.85984802246094] [246.52268981933594:303.498291015625] [247.6448974609375:303.181640625] [251.09587097167969:301.68338012695312] [251.80015563964844:301.26959228515625] [250.83895874023438:298.79803466796875] [260.071533203125:320.490234375] [260.16513061523438:320.53515625] [263.56527709960938:318.253173828125] [264.24313354492188:318.173095703125] [263.12460327148438:317.67800903320312] [205.58645629882812:235.5787353515625] [205.66209411621094:235.80459594726562] [206.00898742675781:235.5743408203125] [205.93580627441406:235.70552062988281] [205.63307189941406:235.83381652832031] [210.07731628417969:237.53688049316406] [209.44992065429688:237.68936157226562] [210.27853393554688:237.48524475097656] [209.730224609375:237.53855895996094] [209.77796936035156:237.73780822753906] [211.98458862304688:241.18727111816406] [211.67449951171875:241.18611145019531] [211.92706298828125:241.00733947753906] [211.89065551757812:241.11607360839844] [212.72914123535156:241.20289611816406] [216.634765625:246.52238464355469] [216.45526123046875:246.22332763671875] [216.796875:246.26742553710938] [216.56355285644531:246.07830810546875] [216.99818420410156:246.40042114257812] [258.36959838867188:317.910400390625] [258.48068237304688:317.6156005859375] [262.67568969726562:315.95767211914062] [262.8297119140625:315.5926513671875] [262.615966796875:315.19039916992188] [219.83541870117188:251.126953125] [219.85218811035156:251.07264709472656] [219.84405517578125:250.91195678710938] [219.8392333984375:250.84521484375] [220.72715759277344:251.21798706054688] [221.56576538085938:255.28878784179688] [221.57510375976562:255.34664916992188] [221.5657958984375:255.19873046875] [221.60964965820312:255.07415771484375] [222.35317993164062:255.90998840332031] [223.25973510742188:259.73980712890625] [223.10115051269531:259.3858642578125] [223.27267456054688:259.4622802734375] [223.07524108886719:259.26077270507812] [223.16360473632812:260.26022338867188] [224.70664978027344:263.94692993164062] [224.71734619140625:263.37234497070312] [224.74537658691406:263.52938842773438] [224.71299743652344:263.18740844726562] [224.67979431152344:264.00372314453125] [226.75422668457031:267.52041625976562] [226.76821899414062:266.92022705078125] [226.67237854003906:267.08547973632812] [226.68629455566406:266.69778442382812] [226.99801635742188:267.39126586914062] [229.34742736816406:270.33999633789062] [229.15264892578125:269.99655151367188] [229.26992797851562:269.95745849609375] [229.21734619140625:269.6640625] [229.51158142089844:270.34255981445312] [232.31773376464844:272.74899291992188] [232.24002075195312:272.44378662109375] [232.29620361328125:272.468994140625] [232.25303649902344:272.0638427734375] [232.45381164550781:272.67373657226562] [235.48600769042969:274.98260498046875] [235.44332885742188:274.6759033203125] [235.46440124511719:274.77005004882812] [235.39593505859375:274.24331665039062] [235.53608703613281:274.83428955078125] [238.54725646972656:277.19775390625] [238.55928039550781:276.71295166015625] [238.54733276367188:276.97525024414062] [238.50749206542969:276.2904052734375] [238.61566162109375:277.00979614257812] [241.46475219726562:278.99356079101562] [241.48989868164062:278.36203002929688] [241.47343444824219:278.80612182617188] [241.45536804199219:278.00946044921875] [241.56242370605469:279.2034912109375] [244.22065734863281:280.67251586914062] [244.26986694335938:279.96316528320312] [244.26809692382812:280.45248413085938] [244.26560974121094:279.58575439453125] [244.31680297851562:281.081787109375] [246.8255615234375:282.19287109375] [246.78541564941406:281.10540771484375] [246.90322875976562:281.90286254882812] [246.85447692871094:280.96295166015625] [246.9378662109375:282.681640625] [256.15478515625:314.81494140625] [256.24575805664062:314.54656982421875] [260.4608154296875:312.89682006835938] [260.5819091796875:312.48587036132812] [260.1531982421875:312.09945678710938] [249.20521545410156:283.61053466796875] [249.11201477050781:282.32830810546875] [249.35604858398438:283.260498046875] [249.24557495117188:282.27825927734375] [249.4908447265625:284.11770629882812] [251.7255859375:285.19677734375] [251.42401123046875:285.169189453125] [251.81179809570312:285.05886840820312] [251.61793518066406:285.00527954101562] [251.9434814453125:285.1611328125] [253.95549011230469:288.352783203125] [253.7587890625:288.434814453125] [254.12364196777344:288.24490356445312] [253.90533447265625:288.16314697265625] [254.2275390625:288.28738403320312] [255.99169921875:291.5205078125] [255.92649841308594:291.413330078125] [256.21151733398438:291.42568969726562] [256.05584716796875:291.3011474609375] [256.3485107421875:291.498046875] [257.9764404296875:294.582275390625] [257.70361328125:294.51416015625] [258.168701171875:294.51467895507812] [257.60879516601562:294.38912963867188] [257.77783203125:294.60345458984375] [258.52569580078125:297.589599609375] [258.0477294921875:297.47607421875] [258.482666015625:297.44094848632812] [258.19436645507812:297.37265014648438] [258.77438354492188:297.65911865234375] [259.58303833007812:300.281982421875] [259.44622802734375:300.467041015625] [259.57870483398438:300.06658935546875] [259.54757690429688:300.06607055664062] [260.14743041992188:300.34194946289062] [261.18609619140625:302.857177734375] [261.36422729492188:303.33740234375] [261.24856567382812:302.66763305664062] [261.4073486328125:302.92361450195312] [261.85446166992188:302.64990234375] [259.05853271484375:318.2421875] [259.06716918945312:318.00692749023438] [263.0799560546875:316.36288452148438] [263.23989868164062:315.99993896484375] [263.20626831054688:315.59844970703125] [262.72039794921875:305.50048828125] [263.053466796875:305.908447265625] [262.888427734375:305.37545776367188] [263.06436157226562:305.53765869140625] [263.45773315429688:305.22500610351562] [261.41729736328125:308.00927734375] [261.87075805664062:308.228271484375] [261.6802978515625:307.87567138671875] [262.05819702148438:308.021484375] [262.51132202148438:307.97406005859375] [261.75747680664062:310.262939453125] [261.54644775390625:310.633056640625] [261.96649169921875:310.07318115234375] [261.71307373046875:310.326904296875] [261.98391723632812:310.1717529296875] [259.345947265625:311.94482421875] [260.2841796875:312.193603515625] [259.55056762695312:311.91036987304688] [260.43719482421875:312.01678466796875] [262.65719604492188:311.86160278320312] [254.43730163574219:311.882080078125] [254.4163818359375:311.69781494140625] [258.493408203125:310.03475952148438] [258.56301879882812:309.5614013671875] [257.70535278320312:309.18331909179688] [259.714111328125:313.68994140625] [260.55877685546875:313.94287109375] [259.76788330078125:313.57354736328125] [260.64059448242188:313.70150756835938] [262.61135864257812:313.53341674804688] [260.22393798828125:315.84170532226562] [261.133056640625:315.61822509765625] [260.21969604492188:315.52239990234375] [261.46063232421875:315.32650756835938] [263.03292846679688:315.37860107421875] [262.154052734375:317.57980346679688] [262.87606811523438:317.32327270507812] [262.15631103515625:317.39480590820312] [263.19696044921875:317.04193115234375] [264.56884765625:317.16287231445312] [264.12820434570312:319.193603515625] [264.38729858398438:318.95440673828125] [264.24505615234375:318.986572265625] [264.69137573242188:318.62893676757812] [266.29443359375:318.76901245117188] [260.672607421875:328.928466796875] [260.8228759765625:330.66259765625] [263.2093505859375:327.32516479492188] [263.59866333007812:328.61941528320312] [261.45223999023438:328.48660278320312] [191.38137817382812:244.82795715332031] [191.43194580078125:243.14668273925781] [192.09136962890625:241.7117919921875] [191.82192993164062:240.95912170410156] [193.06141662597656:241.61422729492188] [0:60047.40625] [0:60048.67578125] [0:60047.3828125] [0:60048.66015625] [10.714285850524902:60048.6640625] [-0.73187160491943359:1.1676661968231201] [-0.65544676780700684:1.1943416595458984] [-0.61118197441101074:0.76357126235961914] [-0.52936935424804688:0.83911854028701782] [-0.65329176187515259:0.74706912040710449] [-2.8421211242675781:5.7940301895141602] [-2.6242351531982422:5.6249971389770508] [-2.2913639545440674:3.7283115386962891] [-2.2363049983978271:3.4851274490356445] [-2.4905450344085693:4.0132088661193848] [-10.129465103149414:19.896938323974609] [-11.196989059448242:21.774171829223633] [-6.4845924377441406:6.3749098777770996] [-6.1323504447937012:6.4781675338745117] [-5.5720052719116211:5.9724464416503906] [-1.0387821197509766:1.3430401086807251] [-0.89930844306945801:1.4153270721435547] [-0.76461923122406006:0.9885144829750061] [-0.72544199228286743:0.89880174398422241] [-1.0169963836669922:1.0625600814819336] [-1.5259771347045898:1.5387427806854248] [-1.6928005218505859:1.3517313003540039] [-1.3121453523635864:1.1615918874740601] [-1.2077518701553345:1.0834118127822876] [-1.2130011320114136:1.0344854593276978] [-11.283102035522461:20.623207092285156] [-13.033427238464355:22.067173004150391] [-6.8729896545410156:6.1707763671875] [-6.2544817924499512:6.029484748840332] [-5.4074482917785645:6.104888916015625] [-2.4736185073852539:1.6016206741333008] [-2.5636119842529297:1.3950033187866211] [-2.3266768455505371:1.3055111169815063] [-1.8919178247451782:1.1493557691574097] [-2.1147010326385498:1.0814681053161621] [-12.032474517822266:20.784599304199219] [-14.55601692199707:21.667524337768555] [-6.8157758712768555:5.5841875076293945] [-5.9751138687133789:5.6104135513305664] [-5.8606600761413574:6.0489912033081055] [-3.5147297382354736:1.8163721561431885] [-3.5651788711547852:1.7001895904541016] [-3.1052474975585938:1.3293030261993408] [-2.975738525390625:1.2573013305664062] [-3.2589280605316162:1.2680771350860596] [-4.1896791458129883:2.0818562507629395] [-4.3474864959716797:1.8898704051971436] [-3.6670506000518799:1.5473731756210327] [-3.7461948394775391:1.4329733848571777] [-3.9787375926971436:1.2993530035018921] [-4.6630649566650391:2.5672826766967773] [-4.8468217849731445:2.0216846466064453] [-4.0570821762084961:1.8582316637039185] [-4.1211042404174805:1.4927054643630981] [-4.3353281021118164:1.64521324634552] [-4.9879484176635742:3.2006492614746094] [-5.3124098777770996:2.4408063888549805] [-4.2281484603881836:2.2857787609100342] [-4.2452683448791504:1.7153164148330688] [-4.4258008003234863:2.0032751560211182] [-8.0605077743530273:19.018714904785156] [-8.7381048202514648:20.110630035400391] [-3.1445600986480713:5.8840880393981934] [-3.6314244270324707:5.8774876594543457] [-3.802006721496582:5.6481723785400391] [-5.4663028717041016:3.5811223983764648] [-5.4292325973510742:2.6912641525268555] [-4.2355127334594727:2.5153903961181641] [-4.1924915313720703:1.8507475852966309] [-4.3092656135559082:2.2950594425201416] [-5.6869544982910156:3.7887411117553711] [-5.5698480606079102:3.1183662414550781] [-4.1461501121520996:2.6249487400054932] [-4.3560972213745117:2.107684850692749] [-4.5906805992126465:2.6277735233306885] [-5.6967954635620117:4.1112985610961914] [-6.5229649543762207:3.5304050445556641] [-4.3411922454833984:2.6425740718841553] [-4.9854645729064941:2.3777174949645996] [-5.313474178314209:2.8865303993225098] [-6.0030107498168945:4.5024757385253906] [-7.2589216232299805:3.8457622528076172] [-4.6667618751525879:2.9108796119689941] [-5.485170841217041:2.6496427059173584] [-5.9070701599121094:3.106691837310791] [-6.2062845230102539:4.7074060440063477] [-7.8234405517578125:4.0766696929931641] [-4.9170680046081543:3.0974915027618408] [-5.8534407615661621:2.8536081314086914] [-6.3674221038818359:3.269338846206665] [-6.2765531539916992:4.6963996887207031] [-8.1529064178466797:4.1641473770141602] [-5.2458148002624512:3.1274330615997314] [-6.0854077339172363:2.9550950527191162] [-6.676055908203125:3.3374664783477783] [-6.2852811813354492:4.4125204086303711] [-8.3234825134277344:4.0840339660644531] [-5.4803838729858398:2.9857969284057617] [-6.2297344207763672:2.9310154914855957] [-6.8570494651794434:3.3010742664337158] [-6.2828254699707031:4.0098648071289062] [-8.3554363250732422:4.0882368087768555] [-5.6418061256408691:2.6863968372344971] [-6.3141875267028809:2.7886676788330078] [-6.9190950393676758:3.3834109306335449] [-6.4876227378845215:4.3953051567077637] [-8.3192815780639648:4.2713503837585449] [-5.6797337532043457:2.6115202903747559] [-6.2744603157043457:2.7307343482971191] [-6.8381643295288086:3.5305099487304688] [-6.751068115234375:4.9321985244750977] [-8.36395263671875:4.5917716026306152] [-5.6564269065856934:2.5850987434387207] [-6.1972713470458984:2.7227208614349365] [-6.7200498580932617:3.6276559829711914] [-6.9152717590332031:5.5230312347412109] [-8.3215236663818359:4.7238068580627441] [-5.7810945510864258:2.7450153827667236] [-6.183098316192627:2.6419112682342529] [-6.5115504264831543:3.6643857955932617] [-6.9049973487854004:5.7532072067260742] [-8.2418146133422852:4.5981178283691406] [-5.9051790237426758:2.9450168609619141] [-6.1186342239379883:2.6580555438995361] [-6.2872867584228516:3.6491420269012451] [-11.389394760131836:21.491636276245117] [-11.42582893371582:21.827613830566406] [-3.972369909286499:7.1123957633972168] [-4.251258373260498:6.5132632255554199] [-5.2027673721313477:6.4045367240905762] [-6.77130126953125:5.4101629257202148] [-8.0160808563232422:4.6610021591186523] [-6.0345611572265625:2.8261117935180664] [-6.0102109909057617:2.7213892936706543] [-6.0006895065307617:3.5745608806610107] [-6.8280363082885742:4.6615629196166992] [-7.7948627471923828:4.7071695327758789] [-6.23553466796875:2.9000368118286133] [-5.915703296661377:2.7852852344512939] [-5.7051229476928711:3.4447257518768311] [-6.9885902404785156:4.7407236099243164] [-7.4895286560058594:4.7313804626464844] [-6.3873381614685059:3.2376947402954102] [-5.9242854118347168:3.043081521987915] [-5.4864778518676758:3.3620705604553223] [-6.9597034454345703:4.6624755859375] [-7.4903774261474609:4.8169422149658203] [-6.3709521293640137:3.5114033222198486] [-5.8726873397827148:3.2962510585784912] [-5.412205696105957:3.271686315536499] [-6.8951702117919922:4.7306976318359375] [-7.3566856384277344:4.8057126998901367] [-6.2979373931884766:3.4311287403106689] [-5.7882862091064453:3.4386751651763916] [-5.3072481155395508:3.6872899532318115] [-6.8203225135803223:4.5181055068969727] [-7.0723056793212891:5.157343864440918] [-6.069943904876709:3.288982629776001] [-5.7399806976318359:3.7101447582244873] [-5.3546433448791504:3.9620304107666016] [-6.5837035179138184:5.1665191650390625] [-6.5951251983642578:5.5405197143554688] [-5.730987548828125:3.4875733852386475] [-5.6433515548706055:3.8336231708526611] [-5.3935880661010742:4.0784659385681152] [-6.4746613502502441:6.0312700271606445] [-6.2564306259155273:6.099517822265625] [-5.5869512557983398:3.9403684139251709] [-5.4535274505615234:3.6743626594543457] [-5.3970551490783691:4.1970014572143555] [-6.3742284774780273:6.5196561813354492] [-6.3081803321838379:6.5476341247558594] [-5.4098434448242188:4.2534728050231934] [-5.1198625564575195:3.5373735427856445] [-5.2088508605957031:4.3427410125732422] [-6.1837549209594727:6.8204431533813477] [-6.1987619400024414:6.7989063262939453] [-5.1197323799133301:4.4049167633056641] [-4.6305480003356934:3.7902841567993164] [-4.8929581642150879:4.3407731056213379] [-5.8234696388244629:6.0919208526611328] [-5.8122611045837402:5.9621257781982422] [-4.6816129684448242:4.320655345916748] [-4.1953063011169434:3.4978179931640625] [-4.4115924835205078:4.1581840515136719] [-5.3441371917724609:5.8009843826293945] [-5.1389155387878418:5.6332521438598633] [-4.0501627922058105:4.0451693534851074] [-3.7328133583068848:3.5091068744659424] [-3.7627997398376465:3.7747886180877686] [-10.799615859985352:21.664760589599609] [-10.390457153320312:22.022842407226562] [-5.5905647277832031:6.8290610313415527] [-5.3473539352416992:6.6156978607177734] [-5.7654571533203125:6.0260286331176758] [-4.6448125839233398:5.792414665222168] [-4.1763243675231934:5.6411495208740234] [-3.4198131561279297:3.7357797622680664] [-3.097942590713501:3.5003106594085693] [-3.1418778896331787:3.9052786827087402] [-3.728323221206665:5.8030586242675781] [-3.1828327178955078:5.6459770202636719] [-2.7408239841461182:3.7381827831268311] [-2.3956220149993896:3.4972908496856689] [-2.6000170707702637:3.7454769611358643] [-2.9079275131225586:5.7813024520874023] [-2.570063591003418:5.6473264694213867] [-2.235926628112793:3.7368166446685791] [-2.1853659152984619:3.4970777034759521] [-2.4701659679412842:3.8297078609466553] [-2.8417768478393555:5.7944250106811523] [-2.6242351531982422:5.6249971389770508] [-2.2902863025665283:3.7277638912200928] [-2.2352273464202881:3.4884843826293945] [-2.4905450344085693:3.9961540699005127] [0.022080190479755402:25.957935333251953] [0.033715195953845978:27.847063064575195] [-3.1415786743164062:3.1415789127349854] [-3.141571044921875:3.1415841579437256] [0.0045778444036841393:19.243125915527344] [-3.1415629386901855:3.1415276527404785] [0.009707198478281498:20.488948822021484] [-3.1415331363677979:3.1415555477142334] [0.031560149043798447:20.283184051513672] [-3.1414284706115723:3.1415925025939941] [0.032438628375530243:53.763664245605469] [0.05695025622844696:53.29833984375] [-3.1415150165557861:3.1415798664093018] [-3.1415259838104248:3.1415250301361084] [0.060225788503885269:53.620029449462891] [-3.1415607929229736:3.1415805816650391] [0.022092774510383606:53.169662475585938] [-3.1414206027984619:3.141491174697876] [0.045056309551000595:52.136440277099609] [-3.1415414810180664:3.1415014266967773] [0.012265902012586594:19.715581893920898] [0.015344291925430298:20.768720626831055] [-3.1415767669677734:3.1414811611175537] [-3.141566276550293:3.1415548324584961] [0.019919736310839653:18.995290756225586] [-3.1415796279907227:3.1415815353393555] [0.005858993623405695:19.129348754882812] [-3.141463041305542:3.1415774822235107] [0.030784850940108299:18.838567733764648] [-3.1415219306945801:3.1415882110595703] [0.012652076780796051:55.282855987548828] [0.016627268865704536:53.297824859619141] [-3.141563892364502:3.1415896415710449] [-3.1414508819580078:3.141444206237793] [0.0039977878332138062:53.242164611816406] [-3.1414599418640137:3.1415867805480957] [0.037742674350738525:52.481452941894531] [-3.1415624618530273:3.1415777206420898] [0.022353153675794601:49.805702209472656] [-3.1415739059448242:3.1413042545318604] [0.11234260350465775:67.999778747558594] [0.11396455764770508:67.780632019042969] [-3.1414356231689453:3.1415719985961914] [-3.1415555477142334:3.1415925025939941] [0.070776998996734619:67.839370727539062] [-3.1415796279907227:3.1415767669677734] [0.039886660873889923:67.502616882324219] [-3.1415648460388184:3.1415793895721436] [0.071810752153396606:68.097946166992188] [-3.1414890289306641:3.1415712833404541] [0.084035575389862061:75.616889953613281] [0.19849702715873718:75.598213195800781] [-3.1415534019470215:3.1414530277252197] [-3.1415882110595703:3.1415760517120361] [0.033806994557380676:75.37945556640625] [-3.1413116455078125:3.1415402889251709] [0.062644392251968384:75.310394287109375] [-3.1415822505950928:3.1415915489196777] [0.087006114423274994:74.703842163085938] [-3.141563892364502:3.1415770053863525] [0.03044646792113781:57.181591033935547] [0.048313330858945847:56.306812286376953] [-3.1415910720825195:3.1413815021514893] [-3.1412944793701172:3.1413896083831787] [0.0084514198824763298:55.284389495849609] [-3.1415715217590332:3.141512393951416] [0.032072916626930237:54.337528228759766] [-3.1415719985961914:3.1415760517120361] [0.030297162011265755:52.690273284912109] [-3.141559362411499:3.1415884494781494] [0.15985086560249329:82.535636901855469] [0.25536581873893738:83.642936706542969] [-3.1415243148803711:3.1415112018585205] [-3.141566276550293:3.1415853500366211] [0.013251880183815956:82.069717407226562] [-3.1414828300476074:3.1415896415710449] [0.10603121668100357:83.207672119140625] [-3.1415290832519531:3.1415884494781494] [0.067606084048748016:83.793869018554688] [-3.1415762901306152:3.1413595676422119] [0.043638322502374649:56.531044006347656] [0.0095656802877783775:56.893924713134766] [-3.1415762901306152:3.1415700912475586] [-3.1415286064147949:3.1415550708770752] [0.00095731567125767469:55.141563415527344] [-3.1415562629699707:3.1415853500366211] [0.016134610399603844:54.53045654296875] [-3.1415748596191406:3.1414709091186523] [0.016232684254646301:53.357673645019531] [-3.1415033340454102:3.1415371894836426] [0.032403562217950821:86.519767761230469] [0.13383819162845612:85.308822631835938] [-3.141589879989624:3.1414835453033447] [-3.1415135860443115:3.141545295715332] [0.05671035498380661:85.93475341796875] [-3.141582727432251:3.1415069103240967] [0.21659950911998749:85.040756225585938] [-3.1415014266967773:3.1414802074432373] [0.036153379827737808:85.043830871582031] [-3.1415519714355469:3.1413586139678955] [0.10333579033613205:85.8182373046875] [0.046445518732070923:83.320564270019531] [-3.1415281295776367:3.141592264175415] [-3.1415777206420898:3.1414854526519775] [0.073983728885650635:85.303779602050781] [-3.141505241394043:3.141531229019165] [0.035276882350444794:83.128410339355469] [-3.1415152549743652:3.1415865421295166] [0.0074969856068491936:83.951789855957031] [-3.1415920257568359:3.1415455341339111] [0.03435148298740387:83.639633178710938] [0.044924721121788025:83.685325622558594] [-3.1415343284606934:3.1415493488311768] [-3.1415719985961914:3.1414773464202881] [0.081067778170108795:83.274650573730469] [-3.1415648460388184:3.1415650844573975] [0.14004291594028473:83.030258178710938] [-3.1415648460388184:3.1415715217590332] [0.041298341006040573:83.891761779785156] [-3.1415824890136719:3.141556978225708] [0.050056561827659607:85.643142700195312] [0.12687224149703979:85.193199157714844] [-3.1415591239929199:3.1415894031524658] [-3.1415815353393555:3.1415877342224121] [0.073655128479003906:85.30718994140625] [-3.1414661407470703:3.1415274143218994] [0.15846988558769226:84.738800048828125] [-3.1415832042694092:3.1413736343383789] [0.09756014496088028:85.382293701171875] [-3.1415917873382568:3.1415398120880127] [0.016132842749357224:32.772373199462891] [0.035823706537485123:35.016006469726562] [-3.1415777206420898:3.1415786743164062] [-3.1415543556213379:3.1415627002716064] [0.031140726059675217:30.787887573242188] [-3.1414508819580078:3.1414780616760254] [0.0098451785743236542:31.168479919433594] [-3.1415843963623047:3.1415848731994629] [0.032217208296060562:30.037363052368164] [-3.1415805816650391:3.1415843963623047] [0.078640282154083252:84.7548828125] [0.11743345111608505:83.396286010742188] [-3.1415176391601562:3.1415636539459229] [-3.1415352821350098:3.1414058208465576] [0.074655808508396149:84.583229064941406] [-3.141463041305542:3.141545295715332] [0.032945338636636734:83.123970031738281] [-3.1415817737579346:3.1415920257568359] [0.028031213209033012:84.202743530273438] [-3.1415777206420898:3.1415836811065674] [0.18724662065505981:83.462875366210938] [0.032647915184497833:81.909507751464844] [-3.1415643692016602:3.1415047645568848] [-3.1415097713470459:3.1415073871612549] [0.10362985730171204:83.270545959472656] [-3.1415824890136719:3.1415450572967529] [0.016958568245172501:81.725311279296875] [-3.1415464878082275:3.1414978504180908] [0.031915202736854553:81.965011596679688] [-3.1415688991546631:3.141578197479248] [0.044897947460412979:82.628456115722656] [0.12928232550621033:80.258209228515625] [-3.1415119171142578:3.141305685043335] [-3.1415133476257324:3.141578197479248] [0.099892549216747284:82.453048706054688] [-3.1415657997131348:3.1415081024169922] [0.042629316449165344:80.113243103027344] [-3.1415908336639404:3.1415233612060547] [0.05758386105298996:80.458175659179688] [-3.1415836811065674:3.1415421962738037] [0.11384026706218719:81.543243408203125] [0.061640642583370209:78.6224365234375] [-3.1415534019470215:3.1415779590606689] [-3.1415045261383057:3.1415672302246094] [0.021024229004979134:81.404960632324219] [-3.1415152549743652:3.1415760517120361] [0.041656713932752609:78.464530944824219] [-3.1415863037109375:3.1415865421295166] [0.13251535594463348:79.12432861328125] [-3.1415891647338867:3.1415314674377441] [0.059498969465494156:79.847480773925781] [0.053369328379631042:76.628433227539062] [-3.1414766311645508:3.1415388584136963] [-3.1415109634399414:3.1415848731994629] [0.078024551272392273:79.651031494140625] [-3.1414740085601807:3.1415603160858154] [0.10935140401124954:76.48199462890625] [-3.1414520740509033:3.1414530277252197] [0.03868335485458374:76.973037719726562] [-3.141547679901123:3.1415002346038818] [0.15073636174201965:77.160148620605469] [0.045541156083345413:74.202522277832031] [-3.141512393951416:3.1415646076202393] [-3.1415731906890869:3.1415789127349854] [0.093516752123832703:76.81427001953125] [-3.1415691375732422:3.1415412425994873] [0.10379532724618912:74.088157653808594] [-3.1414957046508789:3.1415510177612305] [0.15612733364105225:74.036842346191406] [-3.1415901184082031:3.1415421962738037] [0.087549164891242981:73.252342224121094] [0.029747268185019493:71.47772216796875] [-3.1415915489196777:3.1415770053863525] [-3.1414473056793213:3.1415598392486572] [0.011935018934309483:72.637001037597656] [-3.1413440704345703:3.1415891647338867] [0.098621159791946411:71.12060546875] [-3.1415624618530273:3.1415250301361084] [0.083048425614833832:71.452552795410156] [-3.1415562629699707:3.1415493488311768] [0.04076831042766571:70.188713073730469] [0.077807299792766571:68.175148010253906] [-3.1414036750793457:3.1414432525634766] [-3.1415836811065674:3.1415143013000488] [0.071982182562351227:69.688995361328125] [-3.1415836811065674:3.141495943069458] [0.095036126673221588:67.815452575683594] [-3.1415238380432129:3.141566276550293] [0.036505755037069321:68.628570556640625] [-3.1415736675262451:3.1414363384246826] [0.10581441223621368:66.185035705566406] [0.12053324282169342:64.294303894042969] [-3.1415791511535645:3.1415865421295166] [-3.1415724754333496:3.1414725780487061] [0.09567105770111084:65.635383605957031] [-3.1415739059448242:3.1415917873382568] [0.056302264332771301:63.95648193359375] [-3.1415824890136719:3.1415722370147705] [0.12094593793153763:64.467437744140625] [-3.1414599418640137:3.141552209854126] [0.073709607124328613:62.468772888183594] [0.066541008651256561:60.955543518066406] [-3.141575813293457:3.141592264175415] [-3.1414124965667725:3.1415705680847168] [0.0065553439781069756:61.118030548095703] [-3.1415801048278809:3.1414177417755127] [0.08975239098072052:60.343532562255859] [-3.1415233612060547:3.1414783000946045] [0.022702839225530624:60.682205200195312] [-3.1415603160858154:3.1415388584136963] [0.04621284082531929:59.19097900390625] [0.059966012835502625:58.304485321044922] [-3.1415598392486572:3.1414854526519775] [-3.1414687633514404:3.1415307521820068] [0.075649864971637726:58.337356567382812] [-3.1415729522705078:3.1415860652923584] [0.082558967173099518:57.794387817382812] [-3.1415805816650391:3.1415441036224365] [0.042811278253793716:57.511112213134766] [-3.1415755748748779:3.1415848731994629] [0.060088135302066803:57.181430816650391] [0.043174464255571365:55.745700836181641] [-3.1415562629699707:3.1413888931274414] [-3.1415610313415527:3.141547679901123] [0.064139202237129211:56.744194030761719] [-3.1414215564727783:3.1415278911590576] [0.018667714670300484:55.078449249267578] [-3.1415643692016602:3.1415724754333496] [0.0092024756595492363:55.594322204589844] [-3.1415195465087891:3.1415112018585205] [0.015007936395704746:45.327407836914062] [0.012944363988935947:43.506622314453125] [-3.1415796279907227:3.141568660736084] [-3.1415719985961914:3.1415565013885498] [0.015574028715491295:43.484710693359375] [-3.1414794921875:3.1414337158203125] [0.0038754884153604507:42.863601684570312] [-3.1415157318115234:3.1415903568267822] [0.026069628074765205:41.337020874023438] [-3.1415491104125977:3.1415114402770996] [0.060848936438560486:55.170856475830078] [0.059818238019943237:53.670085906982422] [-3.1415226459503174:3.1415431499481201] [-3.141533374786377:3.1415584087371826] [0.035506125539541245:54.762218475341797] [-3.141575813293457:3.1415889263153076] [0.076135233044624329:53.2652587890625] [-3.1415514945983887:3.141547679901123] [0.081420756876468658:53.834030151367188] [-3.1415796279907227:3.1414253711700439] [0.048174649477005005:53.494285583496094] [0.033798109740018845:52.680721282958984] [-3.1415796279907227:3.1415860652923584] [-3.1415576934814453:3.1415641307830811] [0.055255085229873657:53.072723388671875] [-3.1415855884552002:3.1413509845733643] [0.043344348669052124:52.314281463623047] [-3.1415677070617676:3.1415238380432129] [0.055561542510986328:52.604595184326172] [-3.1415877342224121:3.141510009765625] [0.048685330897569656:52.254795074462891] [0.087103880941867828:51.795509338378906] [-3.1415469646453857:3.14129638671875] [-3.1415510177612305:3.1415309906005859] [0.077095717191696167:51.781055450439453] [-3.1415915489196777:3.1415703296661377] [0.055996399372816086:51.369972229003906] [-3.1415863037109375:3.14158034324646] [0.020912293344736099:51.773452758789062] [-3.1415433883666992:3.1415257453918457] [0.030994633212685585:52.567234039306641] [0.073463618755340576:51.850475311279297] [-3.1415877342224121:3.1415882110595703] [-3.1415894031524658:3.1415252685546875] [0.05740545317530632:51.217559814453125] [-3.1415550708770752:3.1415722370147705] [0.0066422354429960251:50.418231964111328] [-3.1415443420410156:3.1415691375732422] [0.032440613955259323:50.792221069335938] [-3.1415839195251465:3.1415760517120361] [0.022750211879611015:53.101940155029297] [0.022717941552400589:52.760002136230469] [-3.1415500640869141:3.1415808200836182] [-3.141566276550293:3.1415622234344482] [0.04513607919216156:51.815624237060547] [-3.1415164470672607:3.141585111618042] [0.033022303134202957:51.360748291015625] [-3.1415610313415527:3.1415772438049316] [0.036988813430070877:50.264480590820312] [-3.1415190696716309:3.1415779590606689] [0.049878910183906555:53.395717620849609] [0.021436523646116257:53.241619110107422] [-3.1415820121765137:3.1415669918060303] [-3.1415820121765137:3.141409158706665] [0.0064921402372419834:52.164985656738281] [-3.1415688991546631:3.1415791511535645] [0.022401493042707443:51.793972015380859] [-3.1415789127349854:3.1413977146148682] [0.024267125874757767:50.512531280517578] [-3.1414997577667236:3.1415801048278809] [0.030761588364839554:53.747459411621094] [0.038743071258068085:53.617168426513672] [-3.1415615081787109:3.1415750980377197] [-3.1414492130279541:3.1414413452148438] [0.030823675915598869:52.582424163818359] [-3.1415376663208008:3.1415512561798096] [0.025400461629033089:52.132644653320312] [-3.1415896415710449:3.1415417194366455] [0.015825767070055008:50.990615844726562] [-3.1415586471557617:3.1415908336639404] [0.035858117043972015:54.196815490722656] [0.019517663866281509:53.970649719238281] [-3.1415882110595703:3.1415667533874512] [-3.1415679454803467:3.141582727432251] [0.016670955345034599:53.019527435302734] [-3.1415109634399414:3.14158034324646] [0.055598601698875427:52.525020599365234] [-3.1415822505950928:3.1414859294891357] [0.017294889315962791:51.431430816650391] [-3.1414165496826172:3.1414978504180908] [0.011897378601133823:31.264780044555664] [0.023193864151835442:33.974140167236328] [-3.1414437294006348:3.1415882110595703] [-3.1415529251098633:3.1415526866912842] [0.019406219944357872:29.139886856079102] [-3.1414787769317627:3.1415588855743408] [0.013718829490244389:29.518241882324219] [-3.1414127349853516:3.1414406299591064] [0.013093096204102039:28.388797760009766] [-3.1415581703186035:3.141552209854126] [0.044218465685844421:54.748821258544922] [0.014255505055189133:54.157424926757812] [-3.1414756774902344:3.1415631771087646] [-3.1415820121765137:3.1415863037109375] [0.046930108219385147:53.565357208251953] [-3.1415493488311768:3.1415164470672607] [0.016619082540273666:52.775276184082031] [-3.1415207386016846:3.1415731906890869] [0.049246326088905334:51.744785308837891] [-3.1415107250213623:3.1413578987121582] [0.03406183049082756:55.178657531738281] [0.0079501383006572723:53.999004364013672] [-3.1413664817810059:3.1415743827819824] [-3.1415805816650391:3.1415417194366455] [0.054328218102455139:53.786205291748047] [-3.1415133476257324:3.1415488719940186] [0.024858254939317703:52.785320281982422] [-3.141545295715332:3.1415016651153564] [0.012781555764377117:51.605091094970703] [-3.141406774520874:3.1415653228759766] [0.013024390675127506:54.859836578369141] [0.032272759824991226:53.570823669433594] [-3.141578197479248:3.1415176391601562] [-3.1415252685546875:3.1414449214935303] [0.02182643860578537:53.483161926269531] [-3.1415674686431885:3.1415081024169922] [0.040742721408605576:52.484916687011719] [-3.1415491104125977:3.1415798664093018] [0.039221517741680145:50.868335723876953] [-3.1415281295776367:3.1415903568267822] [0.036780864000320435:53.545322418212891] [0.027880404144525528:52.369613647460938] [-3.1415348052978516:3.1415095329284668] [-3.1415631771087646:3.1415739059448242] [0.016351206228137016:52.285945892333984] [-3.1415715217590332:3.141441822052002] [0.047104060649871826:51.534538269042969] [-3.141573429107666:3.1415739059448242] [0.02225852757692337:49.267368316650391] [-3.141563892364502:3.141535758972168] [0.018658628687262535:51.728206634521484] [0.041690334677696228:48.731521606445312] [-3.1414928436279297:3.1415064334869385] [-3.1412551403045654:3.1415531635284424] [0.013113825581967831:49.852542877197266] [-3.1415729522705078:3.1415343284606934] [0.01769363135099411:48.842136383056641] [-3.1415901184082031:3.1415436267852783] [0.029308315366506577:46.556243896484375] [-3.1414475440979004:3.141592264175415] [0.0028203546535223722:51.253448486328125] [0.0091557316482067108:50.111793518066406] [-3.1415774822235107:3.141573429107666] [-3.1414957046508789:3.141444206237793] [0.029630698263645172:50.113590240478516] [-3.1415238380432129:3.1415886878967285] [0.020392667502164841:49.457038879394531] [-3.1415014266967773:3.1415038108825684] [0.018908938392996788:46.373466491699219] [-3.1415596008300781:3.14150071144104] [0.014325770549476147:47.402805328369141] [0.012581205926835537:46.30181884765625] [-3.1414690017700195:3.1414339542388916] [-3.1414761543273926:3.14156174659729] [0.0075079300440847874:46.449295043945312] [-3.1415796279907227:3.1415879726409912] [0.020717181265354156:45.842185974121094] [-3.1415727138519287:3.1415863037109375] [0.012897181324660778:42.112846374511719] [-3.1415672302246094:3.141587495803833] [0.0050508449785411358:41.180625915527344] [0.02092883363366127:40.893321990966797] [-3.1415820121765137:3.1415350437164307] [-3.1415600776672363:3.1415884494781494] [0.021616248413920403:40.89825439453125] [-3.1415748596191406:3.1415309906005859] [0.018517138436436653:40.556781768798828] [-3.1415443420410156:3.1415855884552002] [0.03177088126540184:36.287498474121094] [-3.1415886878967285:3.141563892364502] [0.014896401204168797:32.297225952148438] [0.0079891830682754517:32.567680358886719] [-3.1415731906890869:3.1415786743164062] [-3.1415421962738037:3.1415467262268066] [0.02074274979531765:32.540096282958984] [-3.1415703296661377:3.1415867805480957] [0.027846684679389:32.550983428955078] [-3.1415901184082031:3.141545295715332] [0.03359588235616684:27.384878158569336] [-3.1415054798126221:3.141484260559082] [1.5022969245910645:87.46685791015625] [0.25570350885391235:85.921867370605469] [-3.1415700912475586:3.1414577960968018] [-3.1412539482116699:3.1413185596466064] [0.56706589460372925:87.011528015136719] [-3.1415791511535645:3.1415588855743408] [0.32041895389556885:85.807197570800781] [-3.1415708065032959:3.1414651870727539] [0.4037056565284729:86.09613037109375] [-3.141488790512085:3.1415450572967529] [0.026400037109851837:83.22344970703125] [0.083526931703090668:82.135292053222656] [-3.1415834426879883:3.1415164470672607] [-3.1415646076202393:3.1415665149688721] [0.1071515753865242:82.402046203613281] [-3.1415531635284424:3.1415796279907227] [0.11653559654951096:82.391693115234375] [-3.1414947509765625:3.1415061950683594] [0.041012495756149292:82.12933349609375] [-3.1415104866027832:3.1415185928344727] [0.017162377014756203:38.280025482177734] [0.032557778060436249:39.131114959716797] [-3.1415753364562988:3.141573429107666] [0.015427678823471069:37.477104187011719] [-3.1415071487426758:3.1415786743164062] [0.025394650176167488:37.279197692871094] [-3.1415672302246094:3.1414422988891602] [0.025394650176167488:37.415988922119141] [-3.1414918899536133:3.1415503025054932] [0.064460813999176025:67.959892272949219] [0.07584930956363678:68.049575805664062] [-3.1415708065032959:3.1415407657623291] [-3.1414792537689209:3.1415197849273682] [0.10107900202274323:67.413093566894531] [-3.1415393352508545:3.1415579319000244] [0.068914227187633514:66.636314392089844] [-3.1415407657623291:3.1415369510650635] [0.058015692979097366:67.419906616210938] [-3.1414203643798828:3.1415886878967285]
tree_sizes=2646 2648 2650 2659 2654 2661 2660 2678 2667 2683 2690 2685 2694 2683 2689 2695 2696 2695 2696 2699 2693 2695 2683 2712 2690 2688 2704 2687 2685 2699 2699 2714 2696 2704 2717 2689 2705 2692 2677 2711 2689 2677 2702 2683 2659 2694 2690 2660 2670 2689 2670 2677 2688 2690 2676 2679 2660 2663 2693 2667 2659 2682 2696 2694 2654 2647 2656 2659 2687 2676 2660 2686 2677 2677 2646 2687 2669 2644 2644 2667 2645 2633 2675 2626 2666 2650 2687 2683 2670 2646 2667

Tree=0
num_leaves=31
num_cat=0
split_feature=297 333 23 352 132 329 2 558 442 1563 271 1004 26 1428 1241 468 332 1018 1458 569 470 1401 944 754 347 551 26 115 1201 757
split_gain=2324.13 803.767 449.807 325.861 308.85 221.832 221.588 136.854 185.885 145.373 169.872 134.747 127.426 137.257 161.67 116.486 113.762 110.434 103.676 96.78 99.6042 94.28 93.2996 92.3182 90.3027 82.5995 78.1165 112.612 71.7061 91.6423
threshold=803.24099731445324 150.92646789550784 302.80787658691412 1.0000000180025095e-35 11199.416503906252 440.02442932128912 -5.2432222366332999 29.96564865112305 24119.089843750004 0.89022856950759899 631.95358276367199 -0.32734040915966028 2025.0000000000002 24.198697090148929 28.502401351928714 11.920836448669435 247.02860260009768 -0.40011796355247492 20.955958366394047 85.03509902954103 3.0001082420349126 41.047140121459968 -0.035256780683994286 223.16799163818362 -4.8250169754028311 24.001040458679203 1005.0000000000001 13698.150390625002 41.766593933105476 228.45620727539065
decision_type=2 2 2 2 2 2 2 2 2 2 2 2 2 2 2 2 2 2 2 2 2 2 2 2 2 2 2 2 2 2
left_child=3 17 18 24 5 7 16 8 9 26 -11 12 19 -14 -15 -16 -5 -2 -3 20 22 -13 23 -6 -1 -17 -4 -28 -9 -30
right_child=1 2 4 6 11 -7 -8 28 -10 10 -12 21 13 14 15 25 -18 -19 -20 -21 -22 -23 -24 -25 -26 -27 27 -29 29 -31
leaf_value=-0.19611773663023563 -0.18760454759385856 -0.19592129352316268 -0.16026253389742323 -0.19121968352789132 -0.1763590872383671 -0.082285208373033936 -0.19578004071073266 -0.17996495737310947 -0.17114356148277843 -0.023580340286775386 -0.13574393584070751 -0.18389094512775353 -0.17075680130231796 -0.17720090139133135 -0.15972531549993263 -0.12448218453870868 -0.1812965294256951 -0.19335454790614215 -0.18535755496410772 -0.16378640175355827 -0.18112282086176995 -0.12232738621803854 -0.17525066899925554 -0.10104335682236357 -0.19917522170540447 -0.047828137024059879 -0.062215170170998285 -0.15104302386410787 -0.16724094017227489 -0.10121869357247598
leaf_count=560649 211051 78866 5102 236009 1102 1452 773116 21081 10672 1028 1321 195394 30789 2542 1264 1075 61577 440017 78854 16996 151668 1040 4672 1901 1540414 1303 1008 1522 4199 1122
internal_value=0 -1.86405 -1.81098 -1.96858 -1.7785 -1.6229 -1.93925 -1.64719 -1.52161 -1.32039 -0.86979 -1.79677 -1.76108 -1.65125 -1.37243 -1.09698 -1.89164 -1.91486 -1.90595 -1.78398 -1.79977 -1.8356 -1.56995 -1.28543 -1.98354 -0.829186 -1.45696 -1.16115 -1.74554 -1.53225
internal_count=4438806 1267041 615973 3171765 458253 48507 1070702 47055 20653 9981 2349 409746 213312 36973 6184 3642 297586 651068 157720 176339 159343 196434 7675 3003 2101063 2378 7632 2530 26402 5321
shrinkage=0.1


Tree=1
num_leaves=31
num_cat=0
split_feature=352 327 21 442 100 345 329 299 1440 346 383 512 13 1328 1166 334 668 26 332 1521 563 212 612 28 298 58 1446 362 1637 471
split_gain=1861.74 707.82 391.923 289.565 298.246 198.752 176.054 152.379 142.772 139.689 120.216 136.933 119.554 134.169 120.446 148.722 124.646 118.335 113.263 96.6579 121.523 93.6826 87.8479 87.6969 82.5957 81.7635 81.0767 78.3022 93.0485 76.5977
threshold=0.26198257505893713 74.254970550537124 285.00000000000006 24299.728515625004 16200.292968750002 -4.7884826660156241 396.75827026367193 -4953.5595703124991 20.075901985168461 -5.5432152748107901 380.18623352050787 9.4830594062805194 1850.8339843750002 25.241555213928226 11.937333106994631 451.98339843750006 91.172431945800795 1105.0000000000002 217.59938812255862 18.757827758789066 58.069162368774421 4061.133911132813 62.519260406494148 639.33261108398449 345.41380310058599 -1.8047516345977781 26.35245513916016 99561.378906250015 28.635660171508793 3.2535935640335087
decision_type=2 2 2 2 2 2 2 2 2 2 2 2 2 2 2 2 2 2 2 2 2 2 2 2 2 2 2 2 2 2
left_child=5 9 26 4 6 7 17 -1 23 -2 11 -10 21 -14 -15 16 19 -4 -9 -16 -21 29 -5 -6 -7 -23 -3 28 -20 -13
right_child=1 2 3 22 8 24 -8 18 10 -11 -12 12 13 14 15 -17 -18 -19 27 20 -22 25 -24 -25 -26 -27 -28 -29 -30 -31
leaf_value=-0.17895654133188243 -0.17026590533638322 -0.17690381218628085 -0.14698322985517609 -0.17284284375094758 -0.17315006802642685 -0.18076802689042926 -0.056160947687104661 -0.17530517669642304 -0.078216342686108137 -0.17620264727765891 -0.17179464967862459 -0.14070200578420169 -0.16209664950359717 -0.17131087613289378 -0.14065324715800026 -0.05322658339439007 -0.16187322379911195 -0.07141741743201678 -0.16376093808593653 -0.12991716098635273 -0.056825272950850263 -0.14206899843289444 -0.16486545555808846 -0.16091278122360037 -0.17634086897309942 -0.078037505086013745 -0.16615557033132991 -0.16761551463483104 -0.081813475446307071 -0.15938531628782071
leaf_count=482858 240580 124802 5092 91755 36080 1887719 1592 274182 1021 579983 15969 10245 7039 2204 2729 1340 2905 1079 1475 1780 2075 4837 162350 80943 200535 1004 39308 77328 1016 96981
internal_value=0 -1.70295 -1.65458 -1.62738 -1.58118 -1.79251 -1.18043 -1.7656 -1.59264 -1.74442 -1.5509 -1.53073 -1.53647 -1.38983 -1.26704 -1.17958 -1.26859 -1.33801 -1.73305 -1.1117 -0.902484 -1.56229 -1.6777 -1.64682 -1.8034 -1.30889 -1.74306 -1.66469 -1.30045 -1.57606
internal_count=4438806 1513693 693130 529020 274915 2925113 7763 836859 267152 820563 150129 134160 133139 20072 13033 10829 9489 6171 354001 6584 3855 113067 254105 117023 2088254 5841 164110 79819 2491 107226
shrinkage=0.1


Tree=2
num_leaves=31
num_cat=0
split_feature=297 333 352 21 132 4 329 1448 330 617 303 1637 1448 179 556 312 1460 119 297 422 1421 3 994 1172 1514 543 944 474 1498 1514
split_gain=1850.41 618.811 330.824 296.603 232.675 227.319 190.558 138.552 137.197 123.803 132.437 177.589 116.843 195.824 110.992 153.378 110.187 107.198 110.476 99.3137 88.9892 84.6665 105.526 82.2778 81.1649 78.4355 77.9089 82.1343 122.336 77.2164
threshold=2056.0100097656255 137.45764923095706 1.0000000180025095e-35 385.00000000000006 11199.416503906252 -5.6787841320037833 440.02442932128912 14.212024688720705 250.98081207275393 64.94379043579103 12724.294921875002 28.833476066589359 25.88536357879639 6552.8308105468759 29.517044067382816 2880.181274414063 21.137976646423343 13711.162109375002 8900.2758789062518 43.474510192871101 39.438978195190437 -8.341120243072508 -0.90813487768173207 1.379662871360779 21.696074485778812 20.758695602416996 -0.031600564718246453 3.232324600219727 22.284876823425297 22.623214721679691
decision_type=2 2 2 2 2 2 2 2 2 2 2 2 2 2 2 2 2 2 2 2 2 2 2 2 2 2 2 2 2 2
left_child=2 -2 -1 16 6 8 14 -6 -4 -9 20 12 -12 19 15 -5 -3 18 24 -14 21 22 -11 -13 -17 -23 27 28 -27 -7
right_child=1 3 5 4 7 29 -8 9 -10 10 11 23 13 -15 -16 17 -18 -19 -20 -21 -22 25 -24 -25 -26 26 -28 -29 -30 -31
leaf_value=-0.1667916470982593 -0.16068289549604314 -0.16291011031926042 -0.15970817167072029 -0.14593022084812046 -0.15791682039880273 -0.16470848844247246 -0.050716413606920585 -0.15917321916427121 -0.14857736298292121 -0.06898586277907473 -0.14387059362936386 -0.11767453101258599 -0.10473814510951066 -0.14161371813921417 -0.1451136980339526 -0.13025309616962294 -0.15231286818128811 -0.12200008719587006 -0.018952437775268623 -0.023056672956094235 -0.093540871804039555 -0.15617861490512741 -0.13791426781295854 -0.056182527412568774 -0.05454640012230022 -0.13762576935613788 -0.15084167814460223 -0.14248407677781805 -0.049256950438516599 -0.15843255400106115
leaf_count=2111063 502575 93028 233615 7554 67589 847675 1193 34103 60951 1139 63016 2864 1549 4749 22493 1560 79621 6955 1009 1077 1232 59685 5990 1452 1016 1988 83920 42273 1049 94823
internal_value=0 -1.55247 -1.65189 -1.5067 -1.4766 -1.62463 -1.32873 -1.49306 -1.57401 -1.47436 -1.45943 -1.38439 -1.40944 -1.16189 -1.35296 -1.23142 -1.57968 -1.06948 -0.776368 -0.710182 -1.48758 -1.49112 -1.26937 -0.969892 -1.00473 -1.49954 -1.47067 -1.40144 -1.06779 -1.64065
internal_count=4438806 1090679 3348127 588104 415455 1237064 41780 373675 294566 306086 271983 74707 70391 7375 40587 18094 172649 10540 3585 2626 197276 196044 7129 4316 2576 188915 129230 45310 3037 942498
shrinkage=0.1


Tree=3
num_leaves=31
num_cat=0
split_feature=297 333 21 347 132 1164 1027 297 1316 1186 687 468 453 297 330 325 1013 348 417 1138 1637 695 812 1498 1329 1424 1244 685 685 206
split_gain=1782.28 633.671 381.56 242.481 235.548 187.237 248.416 169.838 137.482 156.243 130.602 143.749 184.786 127.346 123.117 109.911 107.688 105.173 103.005 92.4358 87.1957 85.4862 95.7939 136.002 82.9164 124.372 133.786 79.4139 79.0154 147.732
threshold=333.37034606933599 154.76849365234378 242.00000000000003 -4.8635904788970938 11199.416503906252 27.956035614013675 -1.9917367696762083 -4993.4387207031241 47.301183700561531 29.877157211303714 0.016010018996894363 3.7293741703033452 3.540542840957642 9773.7700195312518 250.98081207275393 251.04153442382815 -0.28303119540214533 -5.9313752651214591 15483.534667968752 -0.48343095183372492 28.635660171508793 205.44925689697268 270.03767395019537 18.527633666992191 0.55987519025802623 19.302359580993656 27.417117118835453 0.015738809481263164 0.015400065109133722 4333.1767578125009
decision_type=2 2 2 2 2 2 2 2 2 2 2 2 2 2 2 2 2 2 2 2 2 2 2 2 2 2 2 2 2 2
left_child=3 16 -3 7 5 10 -7 -1 -8 -10 -4 12 19 15 -9 17 -2 18 -6 -12 -17 -15 27 -24 -16 -26 -27 -23 29 -20
right_child=1 2 4 -5 13 6 8 14 9 -11 11 -13 -14 21 24 20 -18 -19 28 -21 -22 22 23 -25 25 26 -28 -29 -30 -31
leaf_value=-0.15467139194628887 -0.14690339394019777 -0.15032136168647581 -0.14345083601574546 -0.15615995509619437 -0.14301919492616558 -0.01817105535674186 -0.12455004349277513 -0.1503641550095941 -0.11276620591399392 -0.011697857491029459 -0.067847096124313763 -0.14230622881575025 -0.031820475955969783 -0.14425763061257213 -0.1434042499566488 -0.13615279818344173 -0.15226717983746207 -0.1453936837855325 -0.13604399545142484 -0.12396283258921381 -0.11238656942792145 -0.10272414873930109 -0.13436199757512174 -0.042163598999444669 -0.14601798877372529 -0.029127771306696651 -0.11612984823634245 -0.13230794209086802 -0.13139078187445394 -0.056122721848882541
leaf_count=480563 290493 146434 21315 2224545 44563 1354 10006 332866 1715 1145 1574 7033 1392 19618 54582 43893 416715 214421 2367 7539 8104 4424 1558 1405 4894 1007 3706 57835 29867 1873
internal_value=0 -1.45641 -1.40768 -1.54963 -1.37915 -1.24597 -1.03931 -1.51965 -1.12988 -0.718802 -1.3226 -1.1873 -1.03116 -1.39556 -1.48711 -1.4136 -1.50057 -1.4296 -1.36346 -1.14149 -1.32446 -1.32204 -1.28455 -0.906879 -1.40206 -1.22014 -0.976973 -1.30212 -1.27563 -1.00357
internal_count=4438806 1336643 629435 3102163 483001 53073 14220 877618 12866 2860 38853 17538 10505 429928 397055 345088 707208 293091 78670 9113 51997 84840 65222 2963 64189 9607 4713 62259 34107 4240
shrinkage=0.1


Tree=4
num_leaves=31
num_cat=0
split_feature=352 333 21 130 558 602 1524 687 347 1013 710 612 1448 303 1304 1448 309 1589 343 354 1426 1464 775 89 1317 2 154 265 699 573
split_gain=1673.81 660.335 428.641 265.323 185.746 195.697 176.03 202.691 175.537 169.942 152.656 139.208 146.293 169.788 172.5 203.895 167.494 129.661 119.182 115.676 114.936 93.8737 98.1703 113.975 151.388 91.8179 86.1861 85.7121 91.7174 81.206
threshold=0.2152509689331055 170.08154296875003 337.00000000000006 11199.412109375002 29.96564865112305 64.759311676025405 20.533394813537601 0.016309527680277828 -4.8250169754028311 -0.40597425401210779 214.4220886230469 51.538496017456062 15.233058929443361 12749.125976562502 28.75632476806641 25.484152793884281 4158.6955566406259 1.6208895444869997 56.763925552368171 1.0000000180025095e-35 39.240228652954109 28.543693542480472 244.0863952636719 9.2361640930175799 -0.086444884538650499 -7.9163961410522452 9129.4477539062518 868.75903320312511 211.72600555419925 31.932183265686039
decision_type=2 2 2 2 2 2 2 2 2 2 2 2 2 2 2 2 2 2 2 2 2 2 2 2 2 2 2 2 2 2
left_child=8 9 21 4 5 -4 -7 10 19 -2 18 -5 -13 20 -15 17 -17 -16 -8 -1 25 -3 -23 24 -24 -14 -27 28 -21 -18
right_child=1 2 3 11 -6 6 7 -9 -10 -11 -12 12 13 14 15 16 29 -19 -20 27 -22 22 23 -25 -26 26 -28 -29 -30 -31
leaf_value=-0.14596724269160308 -0.13692802778821153 -0.14363823250691529 -0.12429400873694696 -0.14164770907351262 -0.12661499919881469 -0.10630899999677584 -0.0025848192528562558 0.028554726662639196 -0.14785673171580355 -0.14345485982858691 -0.12017168852153329 -0.13803725817241913 -0.10900398056554142 -0.1245531588656421 -0.1228626635257218 -0.0083049974616712079 -0.039217585257878357 -0.059807899028765356 -0.086166048764620751 -0.053296041016520246 -0.072887324821232627 -0.13834462481890256 -0.13173287680793297 -0.12679086156141883 -0.02468318270665891 -0.1319158812825435 -0.080448282819958417 -0.1408149994795444 -0.13423804462073477 -0.1102208759159462
leaf_count=510772 262146 157506 9210 49487 26011 7133 1516 1032 2046371 690840 2057 75785 8675 51103 11688 1594 1029 1721 1566 1083 1563 21287 1082 6139 1379 209668 1531 273445 1734 2653
internal_value=0 -1.37956 -1.32676 -1.2919 -1.14123 -0.999123 -0.83515 -0.571279 -1.46779 -1.41649 -0.745678 -1.30953 -1.29497 -1.27322 -1.18025 -1.00363 -0.649941 -1.14641 -0.448664 -1.44013 -1.30232 -1.41496 -1.30398 -1.1106 -0.721188 -1.30652 -1.31546 -1.40428 -1.02397 -0.904392
internal_count=4438806 1605401 652415 465022 48525 22514 13304 6171 2833405 952986 5139 416497 367010 291225 69788 18685 5276 13409 3082 787034 221437 187393 29887 8600 2461 219874 211199 276262 2817 3682
shrinkage=0.1


Tree=5
num_leaves=31
num_cat=0
split_feature=297 333 23 352 325 4 1434 346 695 132 332 422 483 329 497 689 1413 605 1024 975 1161 1528 1009 1526 1200 1438 715 749 23 747
split_gain=1843.07 639.999 342.641 281.923 207.067 196.077 140.815 163.801 189.293 127.715 118.156 112.905 110.215 188.093 105.911 141.884 181.887 105.074 102.956 95.7303 95.682 102.539 102.35 93.7104 88.8892 101.313 89.0624 88.5031 87.3266 113.405
threshold=803.24099731445324 135.09074401855472 225.55862426757815 1.0000000180025095e-35 267.04824829101568 -5.6383833885192862 12.536242485046388 -5.9428789615631095 206.06671142578128 11203.081054687502 288.99574279785162 50.997920989990241 21.960742950439457 440.02442932128912 17.862186431884769 0.016424032859504226 0.79810339212417614 60.503303527832038 -1.4482358694076536 -0.010385513305664061 12.004821300506594 25.34971904754639 -0.31331647932529444 30.36529636383057 54.50740051269532 37.378025054931648 207.38565063476565 219.95533752441409 2138.039672851563 224.81384277343753
decision_type=2 2 2 2 2 2 2 2 2 2 2 2 2 2 2 2 2 2 2 2 2 2 2 2 2 2 2 2 2 2
left_child=3 -2 -3 -1 6 10 -4 8 -8 14 -5 -11 13 18 15 23 -17 -10 19 -6 -19 22 28 -9 25 26 -14 -26 -22 -30
right_child=1 2 4 5 12 -7 7 9 17 11 -12 -13 24 -15 -16 16 -18 20 -20 -21 21 -23 -24 -25 27 -27 -28 -29 29 -31
leaf_value=-0.14089552746758088 -0.134785710595725 -0.13508365281405996 -0.13465951148189859 -0.13305821271885007 -0.10026503995334196 -0.1381586255423326 -0.13228368743384353 -0.11488967734029815 -0.1221552141248064 -0.12849232540889458 -0.11953413939379405 -0.1136995927029737 -0.10450375249781717 -0.011100037044138953 -0.12530747002522821 -0.11365772817628145 -0.0071508328456907373 -0.12034363699488806 -0.10809445014252078 -0.01077317595173014 -0.10461714796566293 -0.043119865548229122 -0.11528994186317663 -0.053809054534993961 -0.040860569220698043 -0.055931312877735388 -0.12996355146032051 -0.10960289552843006 -0.089850611982151038 -0.031315578272465221
leaf_count=2099491 583612 130238 53759 225049 1241 809000 26252 16756 30657 246928 37007 28079 9079 1094 19986 1516 1548 18659 17278 1062 17245 1358 20429 1267 1355 1096 24033 2605 9084 2043
internal_value=0 -1.29293 -1.24734 -1.39372 -1.22364 -1.36411 -1.23846 -1.22562 -1.15847 -1.25253 -1.31126 -1.2698 -1.10074 -0.971975 -1.13827 -1.02971 -0.59534 -1.11406 -1.0227 -0.588125 -1.06618 -1.01683 -1.03368 -1.1045 -1.17071 -1.20702 -1.22908 -0.861863 -0.948666 -0.796734
internal_count=4438806 1268259 684647 3170547 554409 1071056 495566 441807 125727 316080 262056 275007 58843 20675 41073 21087 3064 99475 19581 2303 68818 50159 48801 18023 38168 34208 33112 3960 28372 11127
shrinkage=0.1


Tree=6
num_leaves=31
num_cat=0
split_feature=295 1488 353 23 4 112 170 333 1002 803 24 512 330 4 180 239 1408 719 1536 414 1434 346 922 79 384 359 1417 1254 540 695
split_gain=1594.9 530.075 447.244 230.776 213.695 209.163 190.063 168.844 160.918 199.428 173.892 157.639 128.566 123.238 95.3699 124.642 95.0944 87.2514 83.1293 79.8746 77.9718 78.0218 76.874 103.852 81.0758 74.3509 74.1742 152.042 112.314 86.1213
threshold=4379.0000000000009 18.740525245666507 0.070197045803070082 502.73065185546881 -5.4769592285156241 14792.453613281252 7151.6577148437509 130.6193771362305 -0.58731234073638905 256.29754638671881 1613.114196777344 15.247486591339113 261.96954345703131 -7.7295186519622794 6248.7221679687509 2560.735473632813 28.158329010009769 219.49300384521487 26.828226089477543 92601.707031250015 12.536242485046388 -5.8956096172332755 288.20291137695318 289.49093627929693 342.87548828125006 18.070197105407718 1.1220353841781618 21.161040306091312 16.833847999572757 209.38316345214847
decision_type=2 2 2 2 2 2 2 2 2 2 2 2 2 2 2 2 2 2 2 2 2 2 2 2 2 2 2 2 2 2
left_child=2 3 13 -2 12 -5 8 -7 9 10 11 -3 19 -1 17 -16 -14 -11 -6 -4 -9 26 -13 24 -24 -18 -22 28 29 -28
right_child=1 6 4 5 18 7 -8 20 -10 14 -12 22 16 -15 15 -17 25 -19 -20 -21 21 -23 23 -25 -26 -27 27 -29 -30 -31
leaf_value=-0.12913886316941117 -0.1317261550417298 -0.0076869342809394066 -0.1155559315213294 -0.031322142045274476 -0.13154805751606161 -0.12694175080699963 -0.022369439418949477 -0.12754981750140412 -0.11907356612725001 -0.11507690277182292 -0.018256332490495387 -0.12662749427349879 -0.11760516488968237 -0.13522264668913192 -0.012162283363340395 -0.10182926080903471 -0.10823959872570202 -0.058024272494166085 -0.11987197993615295 -0.12784602357142727 -0.11444766767835768 -0.12005087794034253 -0.082854335721734257 -0.11176420488490491 -0.015724270880537298 -0.057236426849026946 -0.06562106852055731 -0.1090228463448282 -0.10154525235656005 0.022240915289027652
leaf_count=195165 239940 1000 32151 1255 790361 267063 1145 37087 173725 88675 1584 4159 53483 2117366 1026 3171 3624 1404 33166 218601 45994 93983 6621 6751 1012 2408 1227 12756 1839 1064
internal_value=0 -1.22408 -1.32842 -1.25872 -1.29102 -1.22903 -1.14347 -1.23162 -1.14709 -1.08222 -0.885731 -0.944424 -1.24003 -1.34706 -1.12662 -0.795125 -1.14526 -1.14205 -1.31066 -1.26289 -1.18077 -1.15879 -0.991149 -0.915429 -0.737947 -0.877449 -1.09727 -0.969365 -0.589515 -0.259656
internal_count=4438806 992481 3446325 702208 1133794 462268 290273 461013 289128 115403 21127 19543 310267 2312531 94276 4197 59515 90079 823527 250752 193950 156863 18543 14384 7633 6032 62880 16886 4130 2291
shrinkage=0.1


Tree=7
num_leaves=31
num_cat=0
split_feature=297 333 21 347 130 297 558 442 1266 1004 332 597 20 394 77 303 1637 52 1474 374 352 1023 543 329 726 63 260 1332 1446 1294
split_gain=2036.25 698.783 411.259 293.156 225.851 203.085 176.748 227.394 197.159 164.543 147.224 122.086 143.368 122.697 170.071 117.644 164.237 114.563 112.806 107.03 106.196 103.487 100.534 99.9271 112.066 95.6059 93.2215 97.1475 92.1596 121.239
threshold=333.37034606933599 141.0568771362305 315.00000000000006 -4.8250169754028311 11199.412109375002 -4999.9931640624991 29.646245002746586 24119.089843750004 55.008884429931648 -0.32734040915966028 217.59938812255862 41.138334274291999 765.00000000000011 63670.007812500007 291.65878295898443 12724.294921875002 28.635660171508793 -4.7199459075927725 23.347152709960941 96754.027343750015 1.0000000180025095e-35 -0.41107325255870814 38.795141220092781 352.14671325683599 215.64582061767581 0.96609193086624157 1215.1375732421877 0.60739082098007213 26.35245513916016 29.857703208923343
decision_type=2 2 2 2 2 2 2 2 2 2 2 2 2 2 2 2 2 2 2 2 2 2 2 2 2 2 2 2 2 2
left_child=3 21 18 5 6 -1 7 8 25 11 -7 -6 17 15 -15 -14 28 -13 -3 -16 -5 -2 -18 -11 -25 -4 27 -12 -17 -30
right_child=1 2 4 20 9 10 -8 -9 -10 23 26 12 13 14 19 16 22 -19 -20 -21 -22 -23 -24 24 -26 -27 -28 -29 29 -31
leaf_value=-0.1284294615164526 -0.11895426713575888 -0.12633669003383313 -0.042786634569248166 -0.13133597510397019 -0.11802515733164903 -0.12361347362311631 -0.10706508092022207 -0.10252611291705026 0.023014424365963758 -0.11604269446966864 -0.10932004505154098 -0.11853896530395205 -0.1084735482144869 -0.093714353307093753 0.0025051318350745189 -0.099524986181961372 0.0027214613659041656 -0.099370043240402273 -0.11406893343537297 -0.080676257330040912 -0.12773165779333015 -0.12541098377169876 -0.091834857195822905 -0.10385991775681397 -0.013092104298180344 -0.087362374039584037 -0.12039308515265801 -0.076165137040447806 -0.091986796192430872 -0.0055467178129397065
leaf_count=481495 204225 123711 4133 1534003 40707 318390 29515 12189 1272 219397 38686 49310 57710 9223 1876 37748 1434 25191 62292 1434 678741 442663 1000 2381 1022 5792 44075 5577 2404 1210
internal_value=0 -1.17685 -1.12581 -1.28732 -1.09192 -1.25094 -0.950231 -0.80411 -0.577537 -1.10892 -1.21217 -1.06551 -1.04063 -0.989084 -0.772982 -1.01577 -0.92571 -1.1198 -1.22132 -0.32998 -1.30224 -1.23355 -0.350822 -1.15419 -0.763295 -0.686434 -1.12759 -1.05145 -0.960487 -0.618234
internal_count=4438806 1337839 690951 3100967 504948 888223 52901 23386 11197 452047 406728 229247 188540 114039 12533 101506 43796 74501 186003 3310 2212744 646888 2434 222800 3403 9925 88338 44263 41362 3614
shrinkage=0.1


Tree=8
num_leaves=31
num_cat=0
split_feature=297 327 21 352 4 442 102 479 348 1444 753 210 21 1464 504 1336 74 458 332 1474 1419 347 374 1236 29 53 1329 316 791 553
split_gain=2153.96 679.329 345.119 339.436 230.638 217.912 247.672 162.158 156.124 137.394 132.167 197.054 174.662 157.395 150.315 139.765 161.087 133.021 130.965 111.38 103.647 101.762 101.537 100.096 95.5319 93.6602 91.8419 96.6929 91.6094 128.099
threshold=803.24099731445324 74.254970550537124 315.00000000000006 1.0000000180025095e-35 -5.6383833885192862 24299.728515625004 16200.298828125002 88.296585083007827 -5.7495796680450431 19.986562728881839 226.35913848876956 4061.158081054688 1805.0000000000002 24.777168273925785 9.2006664276123065 27.56357574462891 1.449028551578522 88.175682067871108 288.99574279785162 23.347152709960941 1.4265111684799197 -4.8250169754028311 92441.566406250015 18.501480102539066 836.55709838867199 -18.507013320922848 0.60242396593093883 910.18234252929699 249.56607055664065 23.41432094573975
decision_type=2 2 2 2 2 2 2 2 2 2 2 2 2 2 2 2 2 2 2 2 2 2 2 2 2 2 2 2 2 2
left_child=3 8 19 21 18 6 7 -4 22 24 12 -12 14 -14 17 20 -17 -11 -5 -3 -13 -1 28 -9 -8 -16 -20 -28 29 -2
right_child=1 2 5 4 -6 -7 9 23 -10 10 11 15 13 -15 25 16 -18 -19 26 -21 -22 -23 -24 -25 -26 -27 27 -29 -30 -31
leaf_value=-0.1233597470698473 0.0049483150218524912 -0.12108781637025604 0.0083484781452737265 -0.1167881989671522 -0.12288553363308774 -0.10930716341184109 -0.11599624317825979 -0.0094423788531285968 -0.12020293059129272 -0.092178330868220359 -0.10655761568030533 -0.099403967030896753 -0.075892343742164192 0.0023916879780642671 -0.11075266482025391 -0.08238521346374561 0.048221965543608067 0.023850208508493058 -0.10577891288626845 -0.10779530272686387 -0.018228382332885987 -0.12725424751546341 -0.11492932972369144 -0.090594773688282171 -0.10096436085158596 -0.088260775602289634 -0.09769863237517043 -0.02552573695722625 -0.10502020282126744 -0.092051352604005821
leaf_count=560830 1057 106059 1530 225049 809000 194815 38684 1003 488909 1007 63051 5201 4346 1913 13706 1020 1062 1085 32623 56711 1008 1538661 135457 4246 65258 41322 2655 1729 36712 3097
